<?xml version="1.0"?>
<MethodSetup Method="BDT::BDT_GBMbase">
  <GeneralInfo>
    <Info name="TMVA Release" value="4.2.0 [262656]"/>
    <Info name="ROOT Release" value="5.34/36 [336420]"/>
    <Info name="Creator" value="jpyne"/>
    <Info name="Date" value="Mon Oct 10 01:34:00 2016"/>
    <Info name="Host" value="Darwin elcapitanvm.local 15.5.0 Darwin Kernel Version 15.5.0: Tue Apr 19 18:36:36 PDT 2016; root:xnu-3248.50.21~8/RELEASE_X86_64 x86_64"/>
    <Info name="Dir" value="/Users/jpyne/dev/root_dev/calibration/train"/>
    <Info name="Training events" value="80193"/>
    <Info name="TrainingTime" value="1.91444080e+01"/>
    <Info name="AnalysisType" value="Classification"/>
  </GeneralInfo>
  <Options>
    <Option name="V" modified="Yes">False</Option>
    <Option name="VerbosityLevel" modified="No">Default</Option>
    <Option name="VarTransform" modified="No">None</Option>
    <Option name="H" modified="Yes">False</Option>
    <Option name="CreateMVAPdfs" modified="No">False</Option>
    <Option name="IgnoreNegWeightsInTraining" modified="Yes">True</Option>
    <Option name="NTrees" modified="Yes">200</Option>
    <Option name="MaxDepth" modified="Yes">4</Option>
    <Option name="MinNodeSize" modified="No">5%</Option>
    <Option name="nCuts" modified="Yes">100</Option>
    <Option name="BoostType" modified="Yes">Grad</Option>
    <Option name="AdaBoostR2Loss" modified="No">quadratic</Option>
    <Option name="UseBaggedBoost" modified="No">False</Option>
    <Option name="Shrinkage" modified="Yes">1.000000e-01</Option>
    <Option name="AdaBoostBeta" modified="No">5.000000e-01</Option>
    <Option name="UseRandomisedTrees" modified="No">False</Option>
    <Option name="UseNvars" modified="No">3</Option>
    <Option name="UsePoissonNvars" modified="No">True</Option>
    <Option name="BaggedSampleFraction" modified="No">6.000000e-01</Option>
    <Option name="UseYesNoLeaf" modified="No">True</Option>
    <Option name="NegWeightTreatment" modified="No">ignorenegweightsintraining</Option>
    <Option name="Css" modified="No">1.000000e+00</Option>
    <Option name="Cts_sb" modified="No">1.000000e+00</Option>
    <Option name="Ctb_ss" modified="No">1.000000e+00</Option>
    <Option name="Cbb" modified="No">1.000000e+00</Option>
    <Option name="NodePurityLimit" modified="No">5.000000e-01</Option>
    <Option name="SeparationType" modified="Yes">giniindex</Option>
    <Option name="DoBoostMonitor" modified="No">False</Option>
    <Option name="UseFisherCuts" modified="No">False</Option>
    <Option name="MinLinCorrForFisher" modified="No">8.000000e-01</Option>
    <Option name="UseExclusiveVars" modified="No">False</Option>
    <Option name="DoPreselection" modified="No">False</Option>
    <Option name="SigToBkgFraction" modified="No">1.000000e+00</Option>
    <Option name="PruneMethod" modified="Yes">nopruning</Option>
    <Option name="PruneStrength" modified="No">0.000000e+00</Option>
    <Option name="PruningValFraction" modified="No">5.000000e-01</Option>
    <Option name="nEventsMin" modified="No">0</Option>
    <Option name="UseBaggedGrad" modified="No">False</Option>
    <Option name="GradBaggingFraction" modified="No">6.000000e-01</Option>
    <Option name="UseNTrainEvents" modified="No">0</Option>
    <Option name="NNodesMax" modified="No">0</Option>
  </Options>
  <Variables NVar="8">
    <Variable VarIndex="0" Expression="imbalance" Label="imbalance" Title="imbalance" Unit="" Internal="imbalance" Type="F" Min="6.00819883e-04" Max="9.68440592e-01"/>
    <Variable VarIndex="1" Expression="leading_pt" Label="leading_pt" Title="leading_pt" Unit="" Internal="leading_pt" Type="F" Min="3.00000198e-02" Max="1.57788396e+00"/>
    <Variable VarIndex="2" Expression="sub_leading_pt" Label="sub_leading_pt" Title="sub_leading_pt" Unit="" Internal="sub_leading_pt" Type="F" Min="2.00002063e-02" Max="2.99998187e-02"/>
    <Variable VarIndex="3" Expression="delta_phi" Label="delta_phi" Title="delta_phi" Unit="" Internal="delta_phi" Type="F" Min="1.43051147e-05" Max="3.14157200e+00"/>
    <Variable VarIndex="4" Expression="delta_r" Label="delta_r" Title="delta_r" Unit="" Internal="delta_r" Type="F" Min="3.68870437e-01" Max="7.52089262e+00"/>
    <Variable VarIndex="5" Expression="mlj" Label="mlj" Title="mlj" Unit="" Internal="mlj" Type="F" Min="1.44450096e-02" Max="8.83678734e-01"/>
    <Variable VarIndex="6" Expression="minl1j" Label="minl1j" Title="minl1j" Unit="" Internal="minl1j" Type="F" Min="3.84224236e-01" Max="5.33332205e+00"/>
    <Variable VarIndex="7" Expression="minl2j" Label="minl2j" Title="minl2j" Unit="" Internal="minl2j" Type="F" Min="3.85671198e-01" Max="5.24898815e+00"/>
  </Variables>
  <Spectators NSpec="0"/>
  <Classes NClass="2">
    <Class Name="Signal" Index="0"/>
    <Class Name="Background" Index="1"/>
  </Classes>
  <Transformations NTransformations="0"/>
  <MVAPdfs/>
  <Weights NTrees="200" AnalysisType="1">
    <BinaryTree type="DecisionTree" boostWeight="1.0000000000000000e+00" itree="0">
      <Node pos="s" depth="0" NCoef="0" IVar="5" Cut="1.2920622527599335e-01" cType="1" res="-3.9266859247933262e-17" rms="5.0000000000000000e-01" purity="5.0000000000000000e-01" nType="0">
        <Node pos="l" depth="1" NCoef="0" IVar="2" Cut="2.5148501619696617e-02" cType="1" res="3.7236396223306656e-02" rms="4.9861150979995728e-01" purity="5.3723639249801636e-01" nType="0">
          <Node pos="l" depth="2" NCoef="0" IVar="1" Cut="3.8582667708396912e-02" cType="1" res="-4.5006506145000458e-02" rms="4.9797028303146362e-01" purity="4.5499348640441895e-01" nType="0">
            <Node pos="l" depth="3" NCoef="0" IVar="-1" Cut="0.0000000000000000e+00" cType="1" res="-2.8213998302817345e-03" rms="4.6839299798011780e-01" purity="3.2504856586456299e-01" nType="-99"/>
            <Node pos="r" depth="3" NCoef="0" IVar="2" Cut="2.2650759667158127e-02" cType="1" res="-1.9755637273192406e-02" rms="4.9960955977439880e-01" purity="4.8024436831474304e-01" nType="0">
              <Node pos="l" depth="4" NCoef="0" IVar="-1" Cut="0.0000000000000000e+00" cType="1" res="-4.9877990968525410e-03" rms="4.9443039298057556e-01" purity="4.2557826638221741e-01" nType="-99"/>
              <Node pos="r" depth="4" NCoef="0" IVar="-1" Cut="0.0000000000000000e+00" cType="1" res="2.6663471944630146e-03" rms="4.9882027506828308e-01" purity="5.3432685136795044e-01" nType="-99"/>
            </Node>
          </Node>
          <Node pos="r" depth="2" NCoef="0" IVar="1" Cut="3.9096225053071976e-02" cType="1" res="1.3033494353294373e-01" rms="4.8271399736404419e-01" purity="6.3033491373062134e-01" nType="0">
            <Node pos="l" depth="3" NCoef="0" IVar="-1" Cut="0.0000000000000000e+00" cType="1" res="2.2168905707076192e-04" rms="4.9998801946640015e-01" purity="5.0346177816390991e-01" nType="-99"/>
            <Node pos="r" depth="3" NCoef="0" IVar="2" Cut="2.6397388428449631e-02" cType="1" res="1.5330906212329865e-01" rms="4.7591629624366760e-01" purity="6.5330910682678223e-01" nType="0">
              <Node pos="l" depth="4" NCoef="0" IVar="-1" Cut="0.0000000000000000e+00" cType="1" res="7.6218787580728531e-03" rms="4.9063903093338013e-01" purity="5.9629821777343750e-01" nType="-99"/>
              <Node pos="r" depth="4" NCoef="0" IVar="-1" Cut="0.0000000000000000e+00" cType="1" res="1.6198040917515755e-02" rms="4.6889796853065491e-01" purity="6.7359346151351929e-01" nType="-99"/>
            </Node>
          </Node>
        </Node>
        <Node pos="r" depth="1" NCoef="0" IVar="-1" Cut="0.0000000000000000e+00" cType="1" res="-2.0490290597081184e-02" rms="2.8276890516281128e-01" purity="8.7638825178146362e-02" nType="-99"/>
      </Node>
    </BinaryTree>
    <BinaryTree type="DecisionTree" boostWeight="1.0000000000000000e+00" itree="1">
      <Node pos="s" depth="0" NCoef="0" IVar="5" Cut="1.2920622527599335e-01" cType="1" res="-1.3545970432460308e-03" rms="4.9836659431457520e-01" purity="5.0000000000000000e-01" nType="0">
        <Node pos="l" depth="1" NCoef="0" IVar="2" Cut="2.5148501619696617e-02" cType="1" res="3.4834466874599457e-02" rms="4.9775892496109009e-01" purity="5.3723639249801636e-01" nType="0">
          <Node pos="l" depth="2" NCoef="0" IVar="1" Cut="3.8582667708396912e-02" cType="1" res="-4.4299654662609100e-02" rms="4.9776279926300049e-01" purity="4.5499348640441895e-01" nType="0">
            <Node pos="l" depth="3" NCoef="0" IVar="-1" Cut="0.0000000000000000e+00" cType="1" res="-2.7986720670014620e-03" rms="4.6839299798011780e-01" purity="3.2504856586456299e-01" nType="-99"/>
            <Node pos="r" depth="3" NCoef="0" IVar="2" Cut="2.2650759667158127e-02" cType="1" res="-1.9185557961463928e-02" rms="4.9940493702888489e-01" purity="4.8024436831474304e-01" nType="0">
              <Node pos="l" depth="4" NCoef="0" IVar="-1" Cut="0.0000000000000000e+00" cType="1" res="-4.8207775689661503e-03" rms="4.9443036317825317e-01" purity="4.2557826638221741e-01" nType="-99"/>
              <Node pos="r" depth="4" NCoef="0" IVar="-1" Cut="0.0000000000000000e+00" cType="1" res="2.5628104340285063e-03" rms="4.9882027506828308e-01" purity="5.3432685136795044e-01" nType="-99"/>
            </Node>
          </Node>
          <Node pos="r" depth="2" NCoef="0" IVar="1" Cut="3.9096225053071976e-02" cType="1" res="1.2441389262676239e-01" rms="4.8233425617218018e-01" purity="6.3033491373062134e-01" nType="0">
            <Node pos="l" depth="3" NCoef="0" IVar="-1" Cut="0.0000000000000000e+00" cType="1" res="2.1459037088789046e-04" rms="4.9998801946640015e-01" purity="5.0346177816390991e-01" nType="-99"/>
            <Node pos="r" depth="3" NCoef="0" IVar="2" Cut="2.7261963114142418e-02" cType="1" res="1.4633589982986450e-01" rms="4.7578525543212891e-01" purity="6.5330910682678223e-01" nType="0">
              <Node pos="l" depth="4" NCoef="0" IVar="-1" Cut="0.0000000000000000e+00" cType="1" res="9.4141280278563499e-03" rms="4.8639765381813049e-01" purity="6.1543297767639160e-01" nType="-99"/>
              <Node pos="r" depth="4" NCoef="0" IVar="-1" Cut="0.0000000000000000e+00" cType="1" res="1.6161059960722923e-02" rms="4.6509113907814026e-01" purity="6.8354898691177368e-01" nType="-99"/>
            </Node>
          </Node>
        </Node>
        <Node pos="r" depth="1" NCoef="0" IVar="-1" Cut="0.0000000000000000e+00" cType="1" res="-1.9989669322967529e-02" rms="2.8276890516281128e-01" purity="8.7638825178146362e-02" nType="-99"/>
      </Node>
    </BinaryTree>
    <BinaryTree type="DecisionTree" boostWeight="1.0000000000000000e+00" itree="2">
      <Node pos="s" depth="0" NCoef="0" IVar="5" Cut="1.2920622527599335e-01" cType="1" res="-2.5942502543330193e-03" rms="4.9684873223304749e-01" purity="5.0000000000000000e-01" nType="0">
        <Node pos="l" depth="1" NCoef="0" IVar="2" Cut="2.5148501619696617e-02" cType="1" res="3.2581206411123276e-02" rms="4.9698126316070557e-01" purity="5.3723639249801636e-01" nType="0">
          <Node pos="l" depth="2" NCoef="0" IVar="1" Cut="3.8582667708396912e-02" cType="1" res="-4.3607674539089203e-02" rms="4.9756714701652527e-01" purity="4.5499348640441895e-01" nType="0">
            <Node pos="l" depth="3" NCoef="0" IVar="-1" Cut="0.0000000000000000e+00" cType="1" res="-2.7761713135987520e-03" rms="4.6839299798011780e-01" purity="3.2504856586456299e-01" nType="-99"/>
            <Node pos="r" depth="3" NCoef="0" IVar="2" Cut="2.2650759667158127e-02" cType="1" res="-1.8631024286150932e-02" rms="4.9921441078186035e-01" purity="4.8024436831474304e-01" nType="0">
              <Node pos="l" depth="4" NCoef="0" IVar="-1" Cut="0.0000000000000000e+00" cType="1" res="-4.6595684252679348e-03" rms="4.9443039298057556e-01" purity="4.2557826638221741e-01" nType="-99"/>
              <Node pos="r" depth="4" NCoef="0" IVar="-1" Cut="0.0000000000000000e+00" cType="1" res="2.4633279535919428e-03" rms="4.9882027506828308e-01" purity="5.3432685136795044e-01" nType="-99"/>
            </Node>
          </Node>
          <Node pos="r" depth="2" NCoef="0" IVar="1" Cut="3.9096225053071976e-02" cType="1" res="1.1882663518190384e-01" rms="4.8199743032455444e-01" purity="6.3033491373062134e-01" nType="0">
            <Node pos="l" depth="3" NCoef="0" IVar="-1" Cut="0.0000000000000000e+00" cType="1" res="2.0771881099790335e-04" rms="4.9998801946640015e-01" purity="5.0346177816390991e-01" nType="-99"/>
            <Node pos="r" depth="3" NCoef="0" IVar="2" Cut="2.9039142653346062e-02" cType="1" res="1.3975633680820465e-01" rms="4.7567352652549744e-01" purity="6.5330910682678223e-01" nType="0">
              <Node pos="l" depth="4" NCoef="0" IVar="-1" Cut="0.0000000000000000e+00" cType="1" res="1.0833708569407463e-02" rms="4.8058331012725830e-01" purity="6.3731718063354492e-01" nType="-99"/>
              <Node pos="r" depth="4" NCoef="0" IVar="-1" Cut="0.0000000000000000e+00" cType="1" res="2.0414412021636963e-02" rms="4.4821164011955261e-01" purity="7.2159945964813232e-01" nType="-99"/>
            </Node>
          </Node>
        </Node>
        <Node pos="r" depth="1" NCoef="0" IVar="-1" Cut="0.0000000000000000e+00" cType="1" res="-1.9517060369253159e-02" rms="2.8276890516281128e-01" purity="8.7638825178146362e-02" nType="-99"/>
      </Node>
    </BinaryTree>
    <BinaryTree type="DecisionTree" boostWeight="1.0000000000000000e+00" itree="3">
      <Node pos="s" depth="0" NCoef="0" IVar="5" Cut="1.2920622527599335e-01" cType="1" res="-3.7662035319954157e-03" rms="4.9541705846786499e-01" purity="5.0000000000000000e-01" nType="0">
        <Node pos="l" depth="1" NCoef="0" IVar="2" Cut="2.5148501619696617e-02" cType="1" res="3.0424471944570541e-02" rms="4.9625223875045776e-01" purity="5.3723639249801636e-01" nType="0">
          <Node pos="l" depth="2" NCoef="0" IVar="1" Cut="3.8582667708396912e-02" cType="1" res="-4.2930241674184799e-02" rms="4.9738255143165588e-01" purity="4.5499348640441895e-01" nType="0">
            <Node pos="l" depth="3" NCoef="0" IVar="-1" Cut="0.0000000000000000e+00" cType="1" res="-2.7538936119526625e-03" rms="4.6839299798011780e-01" purity="3.2504856586456299e-01" nType="-99"/>
            <Node pos="r" depth="3" NCoef="0" IVar="2" Cut="2.2650759667158127e-02" cType="1" res="-1.8091673031449318e-02" rms="4.9903702735900879e-01" purity="4.8024436831474304e-01" nType="0">
              <Node pos="l" depth="4" NCoef="0" IVar="-1" Cut="0.0000000000000000e+00" cType="1" res="-4.5039430260658264e-03" rms="4.9443039298057556e-01" purity="4.2557826638221741e-01" nType="-99"/>
              <Node pos="r" depth="4" NCoef="0" IVar="-1" Cut="0.0000000000000000e+00" cType="1" res="2.3677351418882608e-03" rms="4.9882027506828308e-01" purity="5.3432685136795044e-01" nType="-99"/>
            </Node>
          </Node>
          <Node pos="r" depth="2" NCoef="0" IVar="1" Cut="4.3644309043884277e-02" cType="1" res="1.1346163600683212e-01" rms="4.8167264461517334e-01" purity="6.3033491373062134e-01" nType="0">
            <Node pos="l" depth="3" NCoef="0" IVar="-1" Cut="0.0000000000000000e+00" cType="1" res="1.8804495921358466e-03" rms="4.9796462059020996e-01" purity="5.3342741727828979e-01" nType="-99"/>
            <Node pos="r" depth="3" NCoef="0" IVar="5" Cut="1.0495147854089737e-01" cType="1" res="1.3902330398559570e-01" rms="4.7374573349952698e-01" purity="6.5888774394989014e-01" nType="0">
              <Node pos="l" depth="4" NCoef="0" IVar="-1" Cut="0.0000000000000000e+00" cType="1" res="1.4539948664605618e-02" rms="4.6873050928115845e-01" purity="6.7311137914657593e-01" nType="-99"/>
              <Node pos="r" depth="4" NCoef="0" IVar="-1" Cut="0.0000000000000000e+00" cType="1" res="5.6571089662611485e-03" rms="4.8984256386756897e-01" purity="5.9880089759826660e-01" nType="-99"/>
            </Node>
          </Node>
        </Node>
        <Node pos="r" depth="1" NCoef="0" IVar="-1" Cut="0.0000000000000000e+00" cType="1" res="-1.9069926813244820e-02" rms="2.8276890516281128e-01" purity="8.7638825178146362e-02" nType="-99"/>
      </Node>
    </BinaryTree>
    <BinaryTree type="DecisionTree" boostWeight="1.0000000000000000e+00" itree="4">
      <Node pos="s" depth="0" NCoef="0" IVar="5" Cut="1.2920622527599335e-01" cType="1" res="-4.8777717165648937e-03" rms="4.9407213926315308e-01" purity="5.0000000000000000e-01" nType="0">
        <Node pos="l" depth="1" NCoef="0" IVar="2" Cut="2.5148501619696617e-02" cType="1" res="2.8355691581964493e-02" rms="4.9557498097419739e-01" purity="5.3723639249801636e-01" nType="0">
          <Node pos="l" depth="2" NCoef="0" IVar="1" Cut="3.8582667708396912e-02" cType="1" res="-4.2267005890607834e-02" rms="4.9720826745033264e-01" purity="4.5499348640441895e-01" nType="0">
            <Node pos="l" depth="3" NCoef="0" IVar="-1" Cut="0.0000000000000000e+00" cType="1" res="-2.7318352367728949e-03" rms="4.6839296817779541e-01" purity="3.2504856586456299e-01" nType="-99"/>
            <Node pos="r" depth="3" NCoef="0" IVar="2" Cut="2.3160479962825775e-02" cType="1" res="-1.7567100003361702e-02" rms="4.9887189269065857e-01" purity="4.8024436831474304e-01" nType="0">
              <Node pos="l" depth="4" NCoef="0" IVar="-1" Cut="0.0000000000000000e+00" cType="1" res="-3.8722930476069450e-03" rms="4.9577990174293518e-01" purity="4.3709859251976013e-01" nType="-99"/>
              <Node pos="r" depth="4" NCoef="0" IVar="-1" Cut="0.0000000000000000e+00" cType="1" res="3.1144381500780582e-03" rms="4.9791258573532104e-01" purity="5.4564028978347778e-01" nType="-99"/>
            </Node>
          </Node>
          <Node pos="r" depth="2" NCoef="0" IVar="1" Cut="5.2740473300218582e-02" cType="1" res="1.0830023139715195e-01" rms="4.8137509822845459e-01" purity="6.3033491373062134e-01" nType="0">
            <Node pos="l" depth="3" NCoef="0" IVar="1" Cut="3.7653863430023193e-02" cType="1" res="4.7592479735612869e-02" rms="4.9474519491195679e-01" purity="5.6213903427124023e-01" nType="0">
              <Node pos="l" depth="4" NCoef="0" IVar="-1" Cut="0.0000000000000000e+00" cType="1" res="-8.7439193157479167e-04" rms="4.9982225894927979e-01" purity="4.8666858673095703e-01" nType="-99"/>
              <Node pos="r" depth="4" NCoef="0" IVar="-1" Cut="0.0000000000000000e+00" cType="1" res="7.9694529995322227e-03" rms="4.8807632923126221e-01" purity="6.0637176036834717e-01" nType="-99"/>
            </Node>
            <Node pos="r" depth="3" NCoef="0" IVar="6" Cut="1.3904899358749390e+00" cType="1" res="1.4199681580066681e-01" rms="4.7042199969291687e-01" purity="6.6818791627883911e-01" nType="0">
              <Node pos="l" depth="4" NCoef="0" IVar="-1" Cut="0.0000000000000000e+00" cType="1" res="6.5689799375832081e-03" rms="4.8539447784423828e-01" purity="6.1762589216232300e-01" nType="-99"/>
              <Node pos="r" depth="4" NCoef="0" IVar="-1" Cut="0.0000000000000000e+00" cType="1" res="1.5835395082831383e-02" rms="4.6243315935134888e-01" purity="6.8914008140563965e-01" nType="-99"/>
            </Node>
          </Node>
        </Node>
        <Node pos="r" depth="1" NCoef="0" IVar="-1" Cut="0.0000000000000000e+00" cType="1" res="-1.8646033480763435e-02" rms="2.8276890516281128e-01" purity="8.7638825178146362e-02" nType="-99"/>
      </Node>
    </BinaryTree>
    <BinaryTree type="DecisionTree" boostWeight="1.0000000000000000e+00" itree="5">
      <Node pos="s" depth="0" NCoef="0" IVar="5" Cut="1.2920622527599335e-01" cType="1" res="-5.9485202655196190e-03" rms="4.9276793003082275e-01" purity="5.0000000000000000e-01" nType="0">
        <Node pos="l" depth="1" NCoef="0" IVar="2" Cut="2.5148501619696617e-02" cType="1" res="2.6352949440479279e-02" rms="4.9490275979042053e-01" purity="5.3723639249801636e-01" nType="0">
          <Node pos="l" depth="2" NCoef="0" IVar="1" Cut="3.8582667708396912e-02" cType="1" res="-4.1586667299270630e-02" rms="4.9704077839851379e-01" purity="4.5499348640441895e-01" nType="0">
            <Node pos="l" depth="3" NCoef="0" IVar="-1" Cut="0.0000000000000000e+00" cType="1" res="-2.7099936269223690e-03" rms="4.6839299798011780e-01" purity="3.2504856586456299e-01" nType="-99"/>
            <Node pos="r" depth="3" NCoef="0" IVar="2" Cut="2.2803675383329391e-02" cType="1" res="-1.7019942402839661e-02" rms="4.9871292710304260e-01" purity="4.8024436831474304e-01" nType="0">
              <Node pos="l" depth="4" NCoef="0" IVar="-1" Cut="0.0000000000000000e+00" cType="1" res="-4.1302451863884926e-03" rms="4.9486836791038513e-01" purity="4.2915466427803040e-01" nType="-99"/>
              <Node pos="r" depth="4" NCoef="0" IVar="-1" Cut="0.0000000000000000e+00" cType="1" res="2.3953099735081196e-03" rms="4.9855160713195801e-01" purity="5.3740972280502319e-01" nType="-99"/>
            </Node>
          </Node>
          <Node pos="r" depth="2" NCoef="0" IVar="1" Cut="5.2740473300218582e-02" cType="1" res="1.0326025635004044e-01" rms="4.8102834820747375e-01" purity="6.3033491373062134e-01" nType="0">
            <Node pos="l" depth="3" NCoef="0" IVar="1" Cut="3.7653863430023193e-02" cType="1" res="4.5248419046401978e-02" rms="4.9454507231712341e-01" purity="5.6213903427124023e-01" nType="0">
              <Node pos="l" depth="4" NCoef="0" IVar="-1" Cut="0.0000000000000000e+00" cType="1" res="-8.4819359472021461e-04" rms="4.9982225894927979e-01" purity="4.8666858673095703e-01" nType="-99"/>
              <Node pos="r" depth="4" NCoef="0" IVar="-1" Cut="0.0000000000000000e+00" cType="1" res="7.5984941795468330e-03" rms="4.8807668685913086e-01" purity="6.0637176036834717e-01" nType="-99"/>
            </Node>
            <Node pos="r" depth="3" NCoef="0" IVar="5" Cut="1.0495147854089737e-01" cType="1" res="1.3546043634414673e-01" rms="4.7028079628944397e-01" purity="6.6818791627883911e-01" nType="0">
              <Node pos="l" depth="4" NCoef="0" IVar="-1" Cut="0.0000000000000000e+00" cType="1" res="1.4424012973904610e-02" rms="4.6403780579566956e-01" purity="6.8491780757904053e-01" nType="-99"/>
              <Node pos="r" depth="4" NCoef="0" IVar="-1" Cut="0.0000000000000000e+00" cType="1" res="5.1042758859694004e-03" rms="4.8868143558502197e-01" purity="6.0392564535140991e-01" nType="-99"/>
            </Node>
          </Node>
        </Node>
        <Node pos="r" depth="1" NCoef="0" IVar="-1" Cut="0.0000000000000000e+00" cType="1" res="-1.8243383616209030e-02" rms="2.8276890516281128e-01" purity="8.7638825178146362e-02" nType="-99"/>
      </Node>
    </BinaryTree>
    <BinaryTree type="DecisionTree" boostWeight="1.0000000000000000e+00" itree="6">
      <Node pos="s" depth="0" NCoef="0" IVar="5" Cut="1.2063266336917877e-01" cType="1" res="-6.9422191008925438e-03" rms="4.9155241250991821e-01" purity="5.0000000000000000e-01" nType="0">
        <Node pos="l" depth="1" NCoef="0" IVar="2" Cut="2.5148501619696617e-02" cType="1" res="3.1074844300746918e-02" rms="4.9370181560516357e-01" purity="5.4386109113693237e-01" nType="0">
          <Node pos="l" depth="2" NCoef="0" IVar="1" Cut="6.8620748817920685e-02" cType="1" res="-3.4339323639869690e-02" rms="4.9738240242004395e-01" purity="4.6150729060173035e-01" nType="0">
            <Node pos="l" depth="3" NCoef="0" IVar="1" Cut="3.8029350340366364e-02" cType="1" res="-8.2651831209659576e-02" rms="4.9112886190414429e-01" purity="4.1266497969627380e-01" nType="0">
              <Node pos="l" depth="4" NCoef="0" IVar="-1" Cut="0.0000000000000000e+00" cType="1" res="-2.5362474843859673e-03" rms="4.6910014748573303e-01" purity="3.2695353031158447e-01" nType="-99"/>
              <Node pos="r" depth="4" NCoef="0" IVar="-1" Cut="0.0000000000000000e+00" cType="1" res="-3.4770853817462921e-03" rms="4.9566134810447693e-01" purity="4.4495224952697754e-01" nType="-99"/>
            </Node>
            <Node pos="r" depth="3" NCoef="0" IVar="2" Cut="2.3160587996244431e-02" cType="1" res="3.0205063521862030e-02" rms="4.9836090207099915e-01" purity="5.2675944566726685e-01" nType="0">
              <Node pos="l" depth="4" NCoef="0" IVar="-1" Cut="0.0000000000000000e+00" cType="1" res="-3.6949550849385560e-04" rms="4.9967783689498901e-01" purity="4.8440489172935486e-01" nType="-99"/>
              <Node pos="r" depth="4" NCoef="0" IVar="-1" Cut="0.0000000000000000e+00" cType="1" res="8.5447365418076515e-03" rms="4.9106800556182861e-01" purity="5.9408617019653320e-01" nType="-99"/>
            </Node>
          </Node>
          <Node pos="r" depth="2" NCoef="0" IVar="1" Cut="6.6384725272655487e-02" cType="1" res="1.0505359619855881e-01" rms="4.7885698080062866e-01" purity="6.3699740171432495e-01" nType="0">
            <Node pos="l" depth="3" NCoef="0" IVar="5" Cut="6.3575848937034607e-02" cType="1" res="6.3855044543743134e-02" rms="4.8988407850265503e-01" purity="5.8964711427688599e-01" nType="0">
              <Node pos="l" depth="4" NCoef="0" IVar="-1" Cut="0.0000000000000000e+00" cType="1" res="-1.8994265701621771e-03" rms="4.9818953871726990e-01" purity="4.9182656407356262e-01" nType="-99"/>
              <Node pos="r" depth="4" NCoef="0" IVar="-1" Cut="0.0000000000000000e+00" cType="1" res="7.8976806253194809e-03" rms="4.8375475406646729e-01" purity="6.1935174465179443e-01" nType="-99"/>
            </Node>
            <Node pos="r" depth="3" NCoef="0" IVar="3" Cut="2.2706654071807861e+00" cType="1" res="1.5273661911487579e-01" rms="4.6119639277458191e-01" purity="6.9180041551589966e-01" nType="0">
              <Node pos="l" depth="4" NCoef="0" IVar="-1" Cut="0.0000000000000000e+00" cType="1" res="1.7515849322080612e-02" rms="4.5206984877586365e-01" purity="7.1253991127014160e-01" nType="-99"/>
              <Node pos="r" depth="4" NCoef="0" IVar="-1" Cut="0.0000000000000000e+00" cType="1" res="8.2431714981794357e-03" rms="4.8031848669052124e-01" purity="6.3681071996688843e-01" nType="-99"/>
            </Node>
          </Node>
        </Node>
        <Node pos="r" depth="1" NCoef="0" IVar="5" Cut="1.4330030977725983e-01" cType="1" res="-2.9619622230529785e-01" rms="3.6172717809677124e-01" purity="1.6628141701221466e-01" nType="0">
          <Node pos="l" depth="2" NCoef="0" IVar="-1" Cut="0.0000000000000000e+00" cType="1" res="-9.0086236596107483e-03" rms="4.4764778017997742e-01" purity="2.9088264703750610e-01" nType="-99"/>
          <Node pos="r" depth="2" NCoef="0" IVar="-1" Cut="0.0000000000000000e+00" cType="1" res="-2.1588701754808426e-02" rms="1.5920443832874298e-01" purity="2.6023263111710548e-02" nType="-99"/>
        </Node>
      </Node>
    </BinaryTree>
    <BinaryTree type="DecisionTree" boostWeight="1.0000000000000000e+00" itree="7">
      <Node pos="s" depth="0" NCoef="0" IVar="5" Cut="1.2063266336917877e-01" cType="1" res="-8.0140763893723488e-03" rms="4.9023631215095520e-01" purity="5.0000000000000000e-01" nType="0">
        <Node pos="l" depth="1" NCoef="0" IVar="2" Cut="2.5445519015192986e-02" cType="1" res="2.8894187882542610e-02" rms="4.9303621053695679e-01" purity="5.4386109113693237e-01" nType="0">
          <Node pos="l" depth="2" NCoef="0" IVar="1" Cut="3.8582667708396912e-02" cType="1" res="-3.0569227412343025e-02" rms="4.9721452593803406e-01" purity="4.6690768003463745e-01" nType="0">
            <Node pos="l" depth="3" NCoef="0" IVar="-1" Cut="0.0000000000000000e+00" cType="1" res="-2.5391690433025360e-03" rms="4.7311067581176758e-01" purity="3.3877611160278320e-01" nType="-99"/>
            <Node pos="r" depth="3" NCoef="0" IVar="2" Cut="2.1563574671745300e-02" cType="1" res="-6.8415668793022633e-03" rms="4.9833235144615173e-01" purity="4.9190098047256470e-01" nType="0">
              <Node pos="l" depth="4" NCoef="0" IVar="-1" Cut="0.0000000000000000e+00" cType="1" res="-5.3660408593714237e-03" rms="4.8993512988090515e-01" purity="4.0062397718429565e-01" nType="-99"/>
              <Node pos="r" depth="4" NCoef="0" IVar="-1" Cut="0.0000000000000000e+00" cType="1" res="1.6995606711134315e-03" rms="4.9832341074943542e-01" purity="5.2514958381652832e-01" nType="-99"/>
            </Node>
          </Node>
          <Node pos="r" depth="2" NCoef="0" IVar="1" Cut="3.9096225053071976e-02" cType="1" res="1.0454967617988586e-01" rms="4.7707226872444153e-01" purity="6.4176917076110840e-01" nType="0">
            <Node pos="l" depth="3" NCoef="0" IVar="-1" Cut="0.0000000000000000e+00" cType="1" res="2.2894365247339010e-04" rms="4.9949273467063904e-01" purity="5.0768488645553589e-01" nType="-99"/>
            <Node pos="r" depth="3" NCoef="0" IVar="5" Cut="6.4657270908355713e-02" cType="1" res="1.2338716536760330e-01" rms="4.7037661075592041e-01" purity="6.6680842638015747e-01" nType="0">
              <Node pos="l" depth="4" NCoef="0" IVar="-1" Cut="0.0000000000000000e+00" cType="1" res="4.9220416694879532e-03" rms="4.8911207914352417e-01" purity="5.9655004739761353e-01" nType="-99"/>
              <Node pos="r" depth="4" NCoef="0" IVar="-1" Cut="0.0000000000000000e+00" cType="1" res="1.2956684455275536e-02" rms="4.6526163816452026e-01" purity="6.8124294281005859e-01" nType="-99"/>
            </Node>
          </Node>
        </Node>
        <Node pos="r" depth="1" NCoef="0" IVar="5" Cut="1.4330030977725983e-01" cType="1" res="-2.8883174061775208e-01" rms="3.6077958345413208e-01" purity="1.6628141701221466e-01" nType="0">
          <Node pos="l" depth="2" NCoef="0" IVar="-1" Cut="0.0000000000000000e+00" cType="1" res="-8.8031888008117676e-03" rms="4.4764965772628784e-01" purity="2.9088264703750610e-01" nType="-99"/>
          <Node pos="r" depth="2" NCoef="0" IVar="-1" Cut="0.0000000000000000e+00" cType="1" res="-2.1152613684535027e-02" rms="1.5920443832874298e-01" purity="2.6023263111710548e-02" nType="-99"/>
        </Node>
      </Node>
    </BinaryTree>
    <BinaryTree type="DecisionTree" boostWeight="1.0000000000000000e+00" itree="8">
      <Node pos="s" depth="0" NCoef="0" IVar="5" Cut="1.2063266336917877e-01" cType="1" res="-8.9277131482958794e-03" rms="4.8907238245010376e-01" purity="5.0000000000000000e-01" nType="0">
        <Node pos="l" depth="1" NCoef="0" IVar="2" Cut="2.4059439077973366e-02" cType="1" res="2.6916909962892532e-02" rms="4.9248984456062317e-01" purity="5.4386109113693237e-01" nType="0">
          <Node pos="l" depth="2" NCoef="0" IVar="5" Cut="6.5667301416397095e-02" cType="1" res="-5.0127845257520676e-02" rms="4.9557301402091980e-01" purity="4.4208484888076782e-01" nType="0">
            <Node pos="l" depth="3" NCoef="0" IVar="-1" Cut="0.0000000000000000e+00" cType="1" res="-7.7659846283495426e-03" rms="4.7418019175529480e-01" purity="3.4384995698928833e-01" nType="-99"/>
            <Node pos="r" depth="3" NCoef="0" IVar="2" Cut="2.1567791700363159e-02" cType="1" res="-1.6422661021351814e-02" rms="4.9837768077850342e-01" purity="4.7616857290267944e-01" nType="0">
              <Node pos="l" depth="4" NCoef="0" IVar="-1" Cut="0.0000000000000000e+00" cType="1" res="-4.5356689952313900e-03" rms="4.9187597632408142e-01" purity="4.1007918119430542e-01" nType="-99"/>
              <Node pos="r" depth="4" NCoef="0" IVar="-1" Cut="0.0000000000000000e+00" cType="1" res="1.2526414357125759e-03" rms="4.9913483858108521e-01" purity="5.1248550415039062e-01" nType="-99"/>
            </Node>
          </Node>
          <Node pos="r" depth="2" NCoef="0" IVar="1" Cut="3.9096225053071976e-02" cType="1" res="8.1625066697597504e-02" rms="4.8288211226463318e-01" purity="6.1613070964813232e-01" nType="0">
            <Node pos="l" depth="3" NCoef="0" IVar="-1" Cut="0.0000000000000000e+00" cType="1" res="-5.0206761807203293e-04" rms="4.9815073609352112e-01" purity="4.7310718894004822e-01" nType="-99"/>
            <Node pos="r" depth="3" NCoef="0" IVar="2" Cut="2.7117867022752762e-02" cType="1" res="1.0285977274179459e-01" rms="4.7696277499198914e-01" purity="6.4390152692794800e-01" nType="0">
              <Node pos="l" depth="4" NCoef="0" IVar="-1" Cut="0.0000000000000000e+00" cType="1" res="6.0013164766132832e-03" rms="4.8804077506065369e-01" purity="6.0276901721954346e-01" nType="-99"/>
              <Node pos="r" depth="4" NCoef="0" IVar="-1" Cut="0.0000000000000000e+00" cType="1" res="1.3289021328091621e-02" rms="4.6176302433013916e-01" purity="6.8983083963394165e-01" nType="-99"/>
            </Node>
          </Node>
        </Node>
        <Node pos="r" depth="1" NCoef="0" IVar="5" Cut="1.4330030977725983e-01" cType="1" res="-2.8165262937545776e-01" rms="3.5988134145736694e-01" purity="1.6628141701221466e-01" nType="0">
          <Node pos="l" depth="2" NCoef="0" IVar="-1" Cut="0.0000000000000000e+00" cType="1" res="-8.6036147549748421e-03" rms="4.4765228033065796e-01" purity="2.9088264703750610e-01" nType="-99"/>
          <Node pos="r" depth="2" NCoef="0" IVar="-1" Cut="0.0000000000000000e+00" cType="1" res="-2.0741662010550499e-02" rms="1.5920443832874298e-01" purity="2.6023263111710548e-02" nType="-99"/>
        </Node>
      </Node>
    </BinaryTree>
    <BinaryTree type="DecisionTree" boostWeight="1.0000000000000000e+00" itree="9">
      <Node pos="s" depth="0" NCoef="0" IVar="5" Cut="1.2920622527599335e-01" cType="1" res="-9.6412431448698044e-03" rms="4.8791018128395081e-01" purity="5.0000000000000000e-01" nType="0">
        <Node pos="l" depth="1" NCoef="0" IVar="2" Cut="2.5544526055455208e-02" cType="1" res="1.9263427704572678e-02" rms="4.9231186509132385e-01" purity="5.3723639249801636e-01" nType="0">
          <Node pos="l" depth="2" NCoef="0" IVar="1" Cut="3.8582667708396912e-02" cType="1" res="-3.4931186586618423e-02" rms="4.9616807699203491e-01" purity="4.6227619051933289e-01" nType="0">
            <Node pos="l" depth="3" NCoef="0" IVar="-1" Cut="0.0000000000000000e+00" cType="1" res="-2.6034975890070200e-03" rms="4.7125154733657837e-01" purity="3.3474162220954895e-01" nType="-99"/>
            <Node pos="r" depth="3" NCoef="0" IVar="2" Cut="2.2635011002421379e-02" cType="1" res="-1.2244274839758873e-02" rms="4.9758177995681763e-01" purity="4.8666968941688538e-01" nType="0">
              <Node pos="l" depth="4" NCoef="0" IVar="-1" Cut="0.0000000000000000e+00" cType="1" res="-3.8541478570550680e-03" rms="4.9388694763183594e-01" purity="4.2493492364883423e-01" nType="-99"/>
              <Node pos="r" depth="4" NCoef="0" IVar="-1" Cut="0.0000000000000000e+00" cType="1" res="1.9692250061780214e-03" rms="4.9748563766479492e-01" purity="5.3881078958511353e-01" nType="-99"/>
            </Node>
          </Node>
          <Node pos="r" depth="2" NCoef="0" IVar="0" Cut="2.9469197988510132e-01" cType="1" res="9.1339617967605591e-02" rms="4.7770321369171143e-01" purity="6.3692981004714966e-01" nType="0">
            <Node pos="l" depth="3" NCoef="0" IVar="7" Cut="1.5924172401428223e+00" cType="1" res="3.4953832626342773e-02" rms="4.9336284399032593e-01" purity="5.6168109178543091e-01" nType="0">
              <Node pos="l" depth="4" NCoef="0" IVar="-1" Cut="0.0000000000000000e+00" cType="1" res="-7.2213064413517714e-04" rms="4.9763682484626770e-01" purity="5.1498556137084961e-01" nType="-99"/>
              <Node pos="r" depth="4" NCoef="0" IVar="-1" Cut="0.0000000000000000e+00" cType="1" res="6.1925221234560013e-03" rms="4.8704198002815247e-01" purity="5.9767907857894897e-01" nType="-99"/>
            </Node>
            <Node pos="r" depth="3" NCoef="0" IVar="6" Cut="1.3904899358749390e+00" cType="1" res="1.1978098005056381e-01" rms="4.6703049540519714e-01" purity="6.7488580942153931e-01" nType="0">
              <Node pos="l" depth="4" NCoef="0" IVar="-1" Cut="0.0000000000000000e+00" cType="1" res="6.0776965692639351e-03" rms="4.8178070783615112e-01" purity="6.2785196304321289e-01" nType="-99"/>
              <Node pos="r" depth="4" NCoef="0" IVar="-1" Cut="0.0000000000000000e+00" cType="1" res="1.3886710628867149e-02" rms="4.5967876911163330e-01" purity="6.9399917125701904e-01" nType="-99"/>
            </Node>
          </Node>
        </Node>
        <Node pos="r" depth="1" NCoef="0" IVar="-1" Cut="0.0000000000000000e+00" cType="1" res="-1.6845865175127983e-02" rms="2.8029084205627441e-01" purity="8.7638825178146362e-02" nType="-99"/>
      </Node>
    </BinaryTree>
    <BinaryTree type="DecisionTree" boostWeight="1.0000000000000000e+00" itree="10">
      <Node pos="s" depth="0" NCoef="0" IVar="5" Cut="1.2063266336917877e-01" cType="1" res="-1.0411268100142479e-02" rms="4.8693406581878662e-01" purity="5.0000000000000000e-01" nType="0">
        <Node pos="l" depth="1" NCoef="0" IVar="2" Cut="2.4059439077973366e-02" cType="1" res="2.3632369935512543e-02" rms="4.9140042066574097e-01" purity="5.4386109113693237e-01" nType="0">
          <Node pos="l" depth="2" NCoef="0" IVar="5" Cut="6.5667301416397095e-02" cType="1" res="-4.7906272113323212e-02" rms="4.9521872401237488e-01" purity="4.4208484888076782e-01" nType="0">
            <Node pos="l" depth="3" NCoef="0" IVar="-1" Cut="0.0000000000000000e+00" cType="1" res="-7.5113340280950069e-03" rms="4.7410053014755249e-01" purity="3.4384995698928833e-01" nType="-99"/>
            <Node pos="r" depth="3" NCoef="0" IVar="2" Cut="2.1567791700363159e-02" cType="1" res="-1.5134108252823353e-02" rms="4.9817115068435669e-01" purity="4.7616857290267944e-01" nType="0">
              <Node pos="l" depth="4" NCoef="0" IVar="-1" Cut="0.0000000000000000e+00" cType="1" res="-4.2844745330512524e-03" rms="4.9188703298568726e-01" purity="4.1007918119430542e-01" nType="-99"/>
              <Node pos="r" depth="4" NCoef="0" IVar="-1" Cut="0.0000000000000000e+00" cType="1" res="1.2304988922551274e-03" rms="4.9907854199409485e-01" purity="5.1248550415039062e-01" nType="-99"/>
            </Node>
          </Node>
          <Node pos="r" depth="2" NCoef="0" IVar="1" Cut="3.9096225053071976e-02" cType="1" res="7.4430726468563080e-02" rms="4.8227047920227051e-01" purity="6.1613070964813232e-01" nType="0">
            <Node pos="l" depth="3" NCoef="0" IVar="-1" Cut="0.0000000000000000e+00" cType="1" res="-5.1230983808636665e-04" rms="4.9795135855674744e-01" purity="4.7310718894004822e-01" nType="-99"/>
            <Node pos="r" depth="3" NCoef="0" IVar="2" Cut="2.7117867022752762e-02" cType="1" res="9.4377696514129639e-02" rms="4.7660595178604126e-01" purity="6.4390152692794800e-01" nType="0">
              <Node pos="l" depth="4" NCoef="0" IVar="-1" Cut="0.0000000000000000e+00" cType="1" res="5.5064824409782887e-03" rms="4.8785567283630371e-01" purity="6.0276901721954346e-01" nType="-99"/>
              <Node pos="r" depth="4" NCoef="0" IVar="-1" Cut="0.0000000000000000e+00" cType="1" res="1.2269990518689156e-02" rms="4.6158403158187866e-01" purity="6.8983083963394165e-01" nType="-99"/>
            </Node>
          </Node>
        </Node>
        <Node pos="r" depth="1" NCoef="0" IVar="5" Cut="1.4330030977725983e-01" cType="1" res="-2.6943331956863403e-01" rms="3.5769841074943542e-01" purity="1.6628141701221466e-01" nType="0">
          <Node pos="l" depth="2" NCoef="0" IVar="-1" Cut="0.0000000000000000e+00" cType="1" res="-8.3043612539768219e-03" rms="4.4683229923248291e-01" purity="2.9088264703750610e-01" nType="-99"/>
          <Node pos="r" depth="2" NCoef="0" IVar="-1" Cut="0.0000000000000000e+00" cType="1" res="-2.0049005746841431e-02" rms="1.5920443832874298e-01" purity="2.6023263111710548e-02" nType="-99"/>
        </Node>
      </Node>
    </BinaryTree>
    <BinaryTree type="DecisionTree" boostWeight="1.0000000000000000e+00" itree="11">
      <Node pos="s" depth="0" NCoef="0" IVar="5" Cut="1.2063266336917877e-01" cType="1" res="-1.1015521362423897e-02" rms="4.8589950799942017e-01" purity="5.0000000000000000e-01" nType="0">
        <Node pos="l" depth="1" NCoef="0" IVar="2" Cut="2.4059439077973366e-02" cType="1" res="2.2069310769438744e-02" rms="4.9087861180305481e-01" purity="5.4386109113693237e-01" nType="0">
          <Node pos="l" depth="2" NCoef="0" IVar="5" Cut="6.5667301416397095e-02" cType="1" res="-4.6671897172927856e-02" rms="4.9497619271278381e-01" purity="4.4208484888076782e-01" nType="0">
            <Node pos="l" depth="3" NCoef="0" IVar="-1" Cut="0.0000000000000000e+00" cType="1" res="-7.3171816766262054e-03" rms="4.7410067915916443e-01" purity="3.4384995698928833e-01" nType="-99"/>
            <Node pos="r" depth="3" NCoef="0" IVar="1" Cut="6.8620748817920685e-02" cType="1" res="-1.4772647060453892e-02" rms="4.9806636571884155e-01" purity="4.7616857290267944e-01" nType="0">
              <Node pos="l" depth="4" NCoef="0" IVar="-1" Cut="0.0000000000000000e+00" cType="1" res="-3.8668368943035603e-03" rms="4.9437204003334045e-01" purity="4.3579527735710144e-01" nType="-99"/>
              <Node pos="r" depth="4" NCoef="0" IVar="-1" Cut="0.0000000000000000e+00" cType="1" res="1.9587364513427019e-03" rms="4.9867528676986694e-01" purity="5.1803576946258545e-01" nType="-99"/>
            </Node>
          </Node>
          <Node pos="r" depth="2" NCoef="0" IVar="1" Cut="3.9096225053071976e-02" cType="1" res="7.0881254971027374e-02" rms="4.8203253746032715e-01" purity="6.1613070964813232e-01" nType="0">
            <Node pos="l" depth="3" NCoef="0" IVar="-1" Cut="0.0000000000000000e+00" cType="1" res="-5.0768296932801604e-04" rms="4.9795138835906982e-01" purity="4.7310718894004822e-01" nType="-99"/>
            <Node pos="r" depth="3" NCoef="0" IVar="0" Cut="5.0550156831741333e-01" cType="1" res="9.0089298784732819e-02" rms="4.7650519013404846e-01" purity="6.4390152692794800e-01" nType="0">
              <Node pos="l" depth="4" NCoef="0" IVar="-1" Cut="0.0000000000000000e+00" cType="1" res="5.6266007013618946e-03" rms="4.8269659280776978e-01" purity="6.2116247415542603e-01" nType="-99"/>
              <Node pos="r" depth="4" NCoef="0" IVar="-1" Cut="0.0000000000000000e+00" cType="1" res="1.3835182413458824e-02" rms="4.6253955364227295e-01" purity="6.8480169773101807e-01" nType="-99"/>
            </Node>
          </Node>
        </Node>
        <Node pos="r" depth="1" NCoef="0" IVar="5" Cut="1.4330030977725983e-01" cType="1" res="-2.6274248957633972e-01" rms="3.5693055391311646e-01" purity="1.6628141701221466e-01" nType="0">
          <Node pos="l" depth="2" NCoef="0" IVar="-1" Cut="0.0000000000000000e+00" cType="1" res="-8.1187626346945763e-03" rms="4.4683629274368286e-01" purity="2.9088264703750610e-01" nType="-99"/>
          <Node pos="r" depth="2" NCoef="0" IVar="-1" Cut="0.0000000000000000e+00" cType="1" res="-1.9698100164532661e-02" rms="1.5920443832874298e-01" purity="2.6023263111710548e-02" nType="-99"/>
        </Node>
      </Node>
    </BinaryTree>
    <BinaryTree type="DecisionTree" boostWeight="1.0000000000000000e+00" itree="12">
      <Node pos="s" depth="0" NCoef="0" IVar="5" Cut="1.2063266336917877e-01" cType="1" res="-1.1579245328903198e-02" rms="4.8490634560585022e-01" purity="5.0000000000000000e-01" nType="0">
        <Node pos="l" depth="1" NCoef="0" IVar="2" Cut="2.5445519015192986e-02" cType="1" res="2.0574154332280159e-02" rms="4.9036946892738342e-01" purity="5.4386109113693237e-01" nType="0">
          <Node pos="l" depth="2" NCoef="0" IVar="1" Cut="3.8582667708396912e-02" cType="1" res="-2.9043452814221382e-02" rms="4.9586701393127441e-01" purity="4.6690768003463745e-01" nType="0">
            <Node pos="l" depth="3" NCoef="0" IVar="-1" Cut="0.0000000000000000e+00" cType="1" res="-2.4163792841136456e-03" rms="4.7249859571456909e-01" purity="3.3877611160278320e-01" nType="-99"/>
            <Node pos="r" depth="3" NCoef="0" IVar="2" Cut="2.1563574671745300e-02" cType="1" res="-6.4698299393057823e-03" rms="4.9716815352439880e-01" purity="4.9190098047256470e-01" nType="0">
              <Node pos="l" depth="4" NCoef="0" IVar="-1" Cut="0.0000000000000000e+00" cType="1" res="-4.6915360726416111e-03" rms="4.8964768648147583e-01" purity="4.0062397718429565e-01" nType="-99"/>
              <Node pos="r" depth="4" NCoef="0" IVar="-1" Cut="0.0000000000000000e+00" cType="1" res="1.4311538543552160e-03" rms="4.9759790301322937e-01" purity="5.2514958381652832e-01" nType="-99"/>
            </Node>
          </Node>
          <Node pos="r" depth="2" NCoef="0" IVar="1" Cut="6.6384725272655487e-02" cType="1" res="8.3702787756919861e-02" rms="4.7586390376091003e-01" purity="6.4176917076110840e-01" nType="0">
            <Node pos="l" depth="3" NCoef="0" IVar="5" Cut="6.4594194293022156e-02" cType="1" res="4.9352440983057022e-02" rms="4.8768153786659241e-01" purity="5.9408116340637207e-01" nType="0">
              <Node pos="l" depth="4" NCoef="0" IVar="-1" Cut="0.0000000000000000e+00" cType="1" res="-1.8207548419013619e-03" rms="4.9720141291618347e-01" purity="5.0261908769607544e-01" nType="-99"/>
              <Node pos="r" depth="4" NCoef="0" IVar="-1" Cut="0.0000000000000000e+00" cType="1" res="6.4646028913557529e-03" rms="4.8176506161689758e-01" purity="6.2392163276672363e-01" nType="-99"/>
            </Node>
            <Node pos="r" depth="3" NCoef="0" IVar="4" Cut="2.4128773212432861e+00" cType="1" res="1.2355583161115646e-01" rms="4.5856109261512756e-01" purity="6.9709646701812744e-01" nType="0">
              <Node pos="l" depth="4" NCoef="0" IVar="-1" Cut="0.0000000000000000e+00" cType="1" res="1.6460664570331573e-02" rms="4.4407522678375244e-01" purity="7.2891074419021606e-01" nType="-99"/>
              <Node pos="r" depth="4" NCoef="0" IVar="-1" Cut="0.0000000000000000e+00" cType="1" res="8.8258311152458191e-03" rms="4.7016498446464539e-01" purity="6.6679209470748901e-01" nType="-99"/>
            </Node>
          </Node>
        </Node>
        <Node pos="r" depth="1" NCoef="0" IVar="5" Cut="1.4330030977725983e-01" cType="1" res="-2.5621935725212097e-01" rms="3.5620301961898804e-01" purity="1.6628141701221466e-01" nType="0">
          <Node pos="l" depth="2" NCoef="0" IVar="-1" Cut="0.0000000000000000e+00" cType="1" res="-7.9381214454770088e-03" rms="4.4684088230133057e-01" purity="2.9088264703750610e-01" nType="-99"/>
          <Node pos="r" depth="2" NCoef="0" IVar="-1" Cut="0.0000000000000000e+00" cType="1" res="-1.9365197047591209e-02" rms="1.5920443832874298e-01" purity="2.6023263111710548e-02" nType="-99"/>
        </Node>
      </Node>
    </BinaryTree>
    <BinaryTree type="DecisionTree" boostWeight="1.0000000000000000e+00" itree="13">
      <Node pos="s" depth="0" NCoef="0" IVar="5" Cut="1.2920622527599335e-01" cType="1" res="-1.2259670533239841e-02" rms="4.8399707674980164e-01" purity="5.0000000000000000e-01" nType="0">
        <Node pos="l" depth="1" NCoef="0" IVar="2" Cut="2.5643531233072281e-02" cType="1" res="1.3633933849632740e-02" rms="4.9022254347801208e-01" purity="5.3723639249801636e-01" nType="0">
          <Node pos="l" depth="2" NCoef="0" IVar="1" Cut="3.9096519351005554e-02" cType="1" res="-3.2653938978910446e-02" rms="4.9502983689308167e-01" purity="4.6405526995658875e-01" nType="0">
            <Node pos="l" depth="3" NCoef="0" IVar="-1" Cut="0.0000000000000000e+00" cType="1" res="-2.5315117090940475e-03" rms="4.7258833050727844e-01" purity="3.4058716893196106e-01" nType="-99"/>
            <Node pos="r" depth="3" NCoef="0" IVar="2" Cut="2.2626258432865143e-02" cType="1" res="-1.0613962076604366e-02" rms="4.9649205803871155e-01" purity="4.8882713913917542e-01" nType="0">
              <Node pos="l" depth="4" NCoef="0" IVar="-1" Cut="0.0000000000000000e+00" cType="1" res="-3.4097537863999605e-03" rms="4.9344095587730408e-01" purity="4.2550382018089294e-01" nType="-99"/>
              <Node pos="r" depth="4" NCoef="0" IVar="-1" Cut="0.0000000000000000e+00" cType="1" res="1.7149860505014658e-03" rms="4.9653485417366028e-01" purity="5.4057669639587402e-01" nType="-99"/>
            </Node>
          </Node>
          <Node pos="r" depth="2" NCoef="0" IVar="0" Cut="2.9281336069107056e-01" cType="1" res="7.7548034489154816e-02" rms="4.7616663575172424e-01" purity="6.3828456401824951e-01" nType="0">
            <Node pos="l" depth="3" NCoef="0" IVar="1" Cut="3.7568815052509308e-02" cType="1" res="2.9028855264186859e-02" rms="4.9243992567062378e-01" purity="5.6290817260742188e-01" nType="0">
              <Node pos="l" depth="4" NCoef="0" IVar="-1" Cut="0.0000000000000000e+00" cType="1" res="-1.1216121492907405e-03" rms="4.9916592240333557e-01" purity="4.8551684617996216e-01" nType="-99"/>
              <Node pos="r" depth="4" NCoef="0" IVar="-1" Cut="0.0000000000000000e+00" cType="1" res="5.8001643046736717e-03" rms="4.8524147272109985e-01" purity="6.1426323652267456e-01" nType="-99"/>
            </Node>
            <Node pos="r" depth="3" NCoef="0" IVar="6" Cut="1.3959923982620239e+00" cType="1" res="1.0174221545457840e-01" rms="4.6595650911331177e-01" purity="6.7587119340896606e-01" nType="0">
              <Node pos="l" depth="4" NCoef="0" IVar="-1" Cut="0.0000000000000000e+00" cType="1" res="4.7841221094131470e-03" rms="4.8074826598167419e-01" purity="6.2838697433471680e-01" nType="-99"/>
              <Node pos="r" depth="4" NCoef="0" IVar="-1" Cut="0.0000000000000000e+00" cType="1" res="1.2124529108405113e-02" rms="4.5853173732757568e-01" purity="6.9554114341735840e-01" nType="-99"/>
            </Node>
          </Node>
        </Node>
        <Node pos="r" depth="1" NCoef="0" IVar="-1" Cut="0.0000000000000000e+00" cType="1" res="-1.5670837834477425e-02" rms="2.7827781438827515e-01" purity="8.7638825178146362e-02" nType="-99"/>
      </Node>
    </BinaryTree>
    <BinaryTree type="DecisionTree" boostWeight="1.0000000000000000e+00" itree="14">
      <Node pos="s" depth="0" NCoef="0" IVar="5" Cut="1.2063266336917877e-01" cType="1" res="-1.2845554389059544e-02" rms="4.8322471976280212e-01" purity="5.0000000000000000e-01" nType="0">
        <Node pos="l" depth="1" NCoef="0" IVar="2" Cut="2.3168388754129410e-02" cType="1" res="1.7680611461400986e-02" rms="4.8955529928207397e-01" purity="5.4386109113693237e-01" nType="0">
          <Node pos="l" depth="2" NCoef="0" IVar="1" Cut="6.8620748817920685e-02" cType="1" res="-5.8693345636129379e-02" rms="4.9264231324195862e-01" purity="4.2157739400863647e-01" nType="0">
            <Node pos="l" depth="3" NCoef="0" IVar="5" Cut="6.4649455249309540e-02" cType="1" res="-1.0555746406316757e-01" rms="4.8235130310058594e-01" purity="3.7244671583175659e-01" nType="0">
              <Node pos="l" depth="4" NCoef="0" IVar="-1" Cut="0.0000000000000000e+00" cType="1" res="-7.5319437310099602e-03" rms="4.5914778113365173e-01" purity="3.0301707983016968e-01" nType="-99"/>
              <Node pos="r" depth="4" NCoef="0" IVar="-1" Cut="0.0000000000000000e+00" cType="1" res="-5.3473170846700668e-03" rms="4.9020597338676453e-01" purity="4.0612670779228210e-01" nType="-99"/>
            </Node>
            <Node pos="r" depth="3" NCoef="0" IVar="6" Cut="2.0185840129852295e+00" cType="1" res="1.7012171447277069e-03" rms="4.9914845824241638e-01" purity="4.8489278554916382e-01" nType="0">
              <Node pos="l" depth="4" NCoef="0" IVar="-1" Cut="0.0000000000000000e+00" cType="1" res="-1.8045898759737611e-03" rms="4.9734595417976379e-01" purity="4.5567247271537781e-01" nType="-99"/>
              <Node pos="r" depth="4" NCoef="0" IVar="-1" Cut="0.0000000000000000e+00" cType="1" res="3.3181789331138134e-03" rms="4.9897438287734985e-01" purity="5.2374714612960815e-01" nType="-99"/>
            </Node>
          </Node>
          <Node pos="r" depth="2" NCoef="0" IVar="1" Cut="3.9096225053071976e-02" cType="1" res="5.3636945784091949e-02" rms="4.8394003510475159e-01" purity="6.0143148899078369e-01" nType="0">
            <Node pos="l" depth="3" NCoef="0" IVar="-1" Cut="0.0000000000000000e+00" cType="1" res="-8.4033800521865487e-04" rms="4.9596980214118958e-01" purity="4.5643335580825806e-01" nType="-99"/>
            <Node pos="r" depth="3" NCoef="0" IVar="5" Cut="6.2622502446174622e-02" cType="1" res="7.2438195347785950e-02" rms="4.7930073738098145e-01" purity="6.2992238998413086e-01" nType="0">
              <Node pos="l" depth="4" NCoef="0" IVar="-1" Cut="0.0000000000000000e+00" cType="1" res="1.6167545982170850e-04" rms="4.9364942312240601e-01" purity="5.4741030931472778e-01" nType="-99"/>
              <Node pos="r" depth="4" NCoef="0" IVar="-1" Cut="0.0000000000000000e+00" cType="1" res="7.6993042603135109e-03" rms="4.7554486989974976e-01" purity="6.4483457803726196e-01" nType="-99"/>
            </Node>
          </Node>
        </Node>
        <Node pos="r" depth="1" NCoef="0" IVar="5" Cut="1.4330030977725983e-01" cType="1" res="-2.4510481953620911e-01" rms="3.5442394018173218e-01" purity="1.6628141701221466e-01" nType="0">
          <Node pos="l" depth="2" NCoef="0" IVar="-1" Cut="0.0000000000000000e+00" cType="1" res="-7.6645677909255028e-03" rms="4.4615158438682556e-01" purity="2.9088264703750610e-01" nType="-99"/>
          <Node pos="r" depth="2" NCoef="0" IVar="-1" Cut="0.0000000000000000e+00" cType="1" res="-1.8800521269440651e-02" rms="1.5920443832874298e-01" purity="2.6023263111710548e-02" nType="-99"/>
        </Node>
      </Node>
    </BinaryTree>
    <BinaryTree type="DecisionTree" boostWeight="1.0000000000000000e+00" itree="15">
      <Node pos="s" depth="0" NCoef="0" IVar="5" Cut="1.2063266336917877e-01" cType="1" res="-1.3253802433609962e-02" rms="4.8240557312965393e-01" purity="5.0000000000000000e-01" nType="0">
        <Node pos="l" depth="1" NCoef="0" IVar="2" Cut="2.5445519015192986e-02" cType="1" res="1.6419496387243271e-02" rms="4.8915162682533264e-01" purity="5.4386109113693237e-01" nType="0">
          <Node pos="l" depth="2" NCoef="0" IVar="1" Cut="3.8582667708396912e-02" cType="1" res="-2.8436757624149323e-02" rms="4.9523869156837463e-01" purity="4.6690768003463745e-01" nType="0">
            <Node pos="l" depth="3" NCoef="0" IVar="-1" Cut="0.0000000000000000e+00" cType="1" res="-2.3440911900252104e-03" rms="4.7240212559700012e-01" purity="3.3877611160278320e-01" nType="-99"/>
            <Node pos="r" depth="3" NCoef="0" IVar="2" Cut="2.1563574671745300e-02" cType="1" res="-6.6029569134116173e-03" rms="4.9663975834846497e-01" purity="4.9190098047256470e-01" nType="0">
              <Node pos="l" depth="4" NCoef="0" IVar="-1" Cut="0.0000000000000000e+00" cType="1" res="-4.3583349324762821e-03" rms="4.8943191766738892e-01" purity="4.0062397718429565e-01" nType="-99"/>
              <Node pos="r" depth="4" NCoef="0" IVar="-1" Cut="0.0000000000000000e+00" cType="1" res="1.2641114881262183e-03" rms="4.9731111526489258e-01" purity="5.2514958381652832e-01" nType="-99"/>
            </Node>
          </Node>
          <Node pos="r" depth="2" NCoef="0" IVar="1" Cut="6.6384725272655487e-02" cType="1" res="7.3490247130393982e-02" rms="4.7521421313285828e-01" purity="6.4176917076110840e-01" nType="0">
            <Node pos="l" depth="3" NCoef="0" IVar="5" Cut="6.4594194293022156e-02" cType="1" res="4.2421814054250717e-02" rms="4.8713454604148865e-01" purity="5.9408116340637207e-01" nType="0">
              <Node pos="l" depth="4" NCoef="0" IVar="-1" Cut="0.0000000000000000e+00" cType="1" res="-1.8920756410807371e-03" rms="4.9704104661941528e-01" purity="5.0261908769607544e-01" nType="-99"/>
              <Node pos="r" depth="4" NCoef="0" IVar="-1" Cut="0.0000000000000000e+00" cType="1" res="5.7287514209747314e-03" rms="4.8147970438003540e-01" purity="6.2392163276672363e-01" nType="-99"/>
            </Node>
            <Node pos="r" depth="3" NCoef="0" IVar="4" Cut="2.4128773212432861e+00" cType="1" res="1.0953564196825027e-01" rms="4.5836690068244934e-01" purity="6.9709646701812744e-01" nType="0">
              <Node pos="l" depth="4" NCoef="0" IVar="-1" Cut="0.0000000000000000e+00" cType="1" res="1.4886637218296528e-02" rms="4.4407975673675537e-01" purity="7.2891074419021606e-01" nType="-99"/>
              <Node pos="r" depth="4" NCoef="0" IVar="-1" Cut="0.0000000000000000e+00" cType="1" res="7.7802222222089767e-03" rms="4.7004929184913635e-01" purity="6.6679209470748901e-01" nType="-99"/>
            </Node>
          </Node>
        </Node>
        <Node pos="r" depth="1" NCoef="0" IVar="5" Cut="1.4330030977725983e-01" cType="1" res="-2.3902399837970734e-01" rms="3.5380232334136963e-01" purity="1.6628141701221466e-01" nType="0">
          <Node pos="l" depth="2" NCoef="0" IVar="-1" Cut="0.0000000000000000e+00" cType="1" res="-7.4958638288080692e-03" rms="4.4615721702575684e-01" purity="2.9088264703750610e-01" nType="-99"/>
          <Node pos="r" depth="2" NCoef="0" IVar="-1" Cut="0.0000000000000000e+00" cType="1" res="-1.8511196598410606e-02" rms="1.5920443832874298e-01" purity="2.6023263111710548e-02" nType="-99"/>
        </Node>
      </Node>
    </BinaryTree>
    <BinaryTree type="DecisionTree" boostWeight="1.0000000000000000e+00" itree="16">
      <Node pos="s" depth="0" NCoef="0" IVar="5" Cut="1.2063266336917877e-01" cType="1" res="-1.3794950209558010e-02" rms="4.8164051771163940e-01" purity="5.0000000000000000e-01" nType="0">
        <Node pos="l" depth="1" NCoef="0" IVar="2" Cut="2.3168388754129410e-02" cType="1" res="1.5027994289994240e-02" rms="4.8879209160804749e-01" purity="5.4386109113693237e-01" nType="0">
          <Node pos="l" depth="2" NCoef="0" IVar="1" Cut="6.8620748817920685e-02" cType="1" res="-5.6330252438783646e-02" rms="4.9232685565948486e-01" purity="4.2157739400863647e-01" nType="0">
            <Node pos="l" depth="3" NCoef="0" IVar="5" Cut="7.3810100555419922e-02" cType="1" res="-1.0171456634998322e-01" rms="4.8220577836036682e-01" purity="3.7244671583175659e-01" nType="0">
              <Node pos="l" depth="4" NCoef="0" IVar="-1" Cut="0.0000000000000000e+00" cType="1" res="-7.2991051711142063e-03" rms="4.6715700626373291e-01" purity="3.2384589314460754e-01" nType="-99"/>
              <Node pos="r" depth="4" NCoef="0" IVar="-1" Cut="0.0000000000000000e+00" cType="1" res="-4.3499604798853397e-03" rms="4.9227583408355713e-01" purity="4.1880792379379272e-01" nType="-99"/>
            </Node>
            <Node pos="r" depth="3" NCoef="0" IVar="4" Cut="2.3502569198608398e+00" cType="1" res="2.1572581026703119e-03" rms="4.9902057647705078e-01" purity="4.8489278554916382e-01" nType="0">
              <Node pos="l" depth="4" NCoef="0" IVar="-1" Cut="0.0000000000000000e+00" cType="1" res="2.9144361615180969e-03" rms="4.9902832508087158e-01" purity="5.1840060949325562e-01" nType="-99"/>
              <Node pos="r" depth="4" NCoef="0" IVar="-1" Cut="0.0000000000000000e+00" cType="1" res="-1.8964461050927639e-03" rms="4.9698278307914734e-01" purity="4.5231556892395020e-01" nType="-99"/>
            </Node>
          </Node>
          <Node pos="r" depth="2" NCoef="0" IVar="1" Cut="3.9096225053071976e-02" cType="1" res="4.8622969537973404e-02" rms="4.8348638415336609e-01" purity="6.0143148899078369e-01" nType="0">
            <Node pos="l" depth="3" NCoef="0" IVar="-1" Cut="0.0000000000000000e+00" cType="1" res="-8.4373349091038108e-04" rms="4.9573710560798645e-01" purity="4.5643335580825806e-01" nType="-99"/>
            <Node pos="r" depth="3" NCoef="0" IVar="2" Cut="2.7294302359223366e-02" cType="1" res="6.6470794379711151e-02" rms="4.7902217507362366e-01" purity="6.2992238998413086e-01" nType="0">
              <Node pos="l" depth="4" NCoef="0" IVar="-1" Cut="0.0000000000000000e+00" cType="1" res="3.8024245295673609e-03" rms="4.8900610208511353e-01" purity="5.9151899814605713e-01" nType="-99"/>
              <Node pos="r" depth="4" NCoef="0" IVar="-1" Cut="0.0000000000000000e+00" cType="1" res="9.9992444738745689e-03" rms="4.6016359329223633e-01" purity="6.9192463159561157e-01" nType="-99"/>
            </Node>
          </Node>
        </Node>
        <Node pos="r" depth="1" NCoef="0" IVar="5" Cut="1.4330030977725983e-01" cType="1" res="-2.3309519886970520e-01" rms="3.5321360826492310e-01" purity="1.6628141701221466e-01" nType="0">
          <Node pos="l" depth="2" NCoef="0" IVar="-1" Cut="0.0000000000000000e+00" cType="1" res="-7.3314155451953411e-03" rms="4.4616329669952393e-01" purity="2.9088264703750610e-01" nType="-99"/>
          <Node pos="r" depth="2" NCoef="0" IVar="-1" Cut="0.0000000000000000e+00" cType="1" res="-1.8235146999359131e-02" rms="1.5920443832874298e-01" purity="2.6023263111710548e-02" nType="-99"/>
        </Node>
      </Node>
    </BinaryTree>
    <BinaryTree type="DecisionTree" boostWeight="1.0000000000000000e+00" itree="17">
      <Node pos="s" depth="0" NCoef="0" IVar="5" Cut="1.2063266336917877e-01" cType="1" res="-1.4161112718284130e-02" rms="4.8089757561683655e-01" purity="5.0000000000000000e-01" nType="0">
        <Node pos="l" depth="1" NCoef="0" IVar="2" Cut="2.5445519015192986e-02" cType="1" res="1.3853942044079304e-02" rms="4.8842158913612366e-01" purity="5.4386109113693237e-01" nType="0">
          <Node pos="l" depth="2" NCoef="0" IVar="1" Cut="3.8582667708396912e-02" cType="1" res="-2.7914699167013168e-02" rms="4.9485450983047485e-01" purity="4.6690768003463745e-01" nType="0">
            <Node pos="l" depth="3" NCoef="0" IVar="-1" Cut="0.0000000000000000e+00" cType="1" res="-2.2943224757909775e-03" rms="4.7230780124664307e-01" purity="3.3877611160278320e-01" nType="-99"/>
            <Node pos="r" depth="3" NCoef="0" IVar="5" Cut="6.5719187259674072e-02" cType="1" res="-6.5703396685421467e-03" rms="4.9632987380027771e-01" purity="4.9190098047256470e-01" nType="0">
              <Node pos="l" depth="4" NCoef="0" IVar="-1" Cut="0.0000000000000000e+00" cType="1" res="-5.5169812403619289e-03" rms="4.8907178640365601e-01" purity="4.1361048817634583e-01" nType="-99"/>
              <Node pos="r" depth="4" NCoef="0" IVar="-1" Cut="0.0000000000000000e+00" cType="1" res="9.1497687390074134e-04" rms="4.9667847156524658e-01" purity="5.1370406150817871e-01" nType="-99"/>
            </Node>
          </Node>
          <Node pos="r" depth="2" NCoef="0" IVar="1" Cut="6.6384725272655487e-02" cType="1" res="6.6996313631534576e-02" rms="4.7483059763908386e-01" purity="6.4176917076110840e-01" nType="0">
            <Node pos="l" depth="3" NCoef="0" IVar="5" Cut="6.4594194293022156e-02" cType="1" res="3.8094051182270050e-02" rms="4.8685604333877563e-01" purity="5.9408116340637207e-01" nType="0">
              <Node pos="l" depth="4" NCoef="0" IVar="-1" Cut="0.0000000000000000e+00" cType="1" res="-1.9590416923165321e-03" rms="4.9684312939643860e-01" purity="5.0261908769607544e-01" nType="-99"/>
              <Node pos="r" depth="4" NCoef="0" IVar="-1" Cut="0.0000000000000000e+00" cType="1" res="5.2775978110730648e-03" rms="4.8138183355331421e-01" purity="6.2392163276672363e-01" nType="-99"/>
            </Node>
            <Node pos="r" depth="3" NCoef="0" IVar="3" Cut="2.1151463985443115e+00" cType="1" res="1.0052853077650070e-01" rms="4.5820650458335876e-01" purity="6.9709646701812744e-01" nType="0">
              <Node pos="l" depth="4" NCoef="0" IVar="-1" Cut="0.0000000000000000e+00" cType="1" res="1.2758983299136162e-02" rms="4.4909763336181641e-01" purity="7.1840518712997437e-01" nType="-99"/>
              <Node pos="r" depth="4" NCoef="0" IVar="-1" Cut="0.0000000000000000e+00" cType="1" res="5.6241094134747982e-03" rms="4.7474765777587891e-01" purity="6.5204519033432007e-01" nType="-99"/>
            </Node>
          </Node>
        </Node>
        <Node pos="r" depth="1" NCoef="0" IVar="5" Cut="1.4330030977725983e-01" cType="1" res="-2.2731451690196991e-01" rms="3.5265606641769409e-01" purity="1.6628141701221466e-01" nType="0">
          <Node pos="l" depth="2" NCoef="0" IVar="-1" Cut="0.0000000000000000e+00" cType="1" res="-7.1710608899593353e-03" rms="4.4616985321044922e-01" purity="2.9088264703750610e-01" nType="-99"/>
          <Node pos="r" depth="2" NCoef="0" IVar="-1" Cut="0.0000000000000000e+00" cType="1" res="-1.7971400171518326e-02" rms="1.5920443832874298e-01" purity="2.6023263111710548e-02" nType="-99"/>
        </Node>
      </Node>
    </BinaryTree>
    <BinaryTree type="DecisionTree" boostWeight="1.0000000000000000e+00" itree="18">
      <Node pos="s" depth="0" NCoef="0" IVar="5" Cut="1.2920622527599335e-01" cType="1" res="-1.4574344269931316e-02" rms="4.8021492362022400e-01" purity="5.0000000000000000e-01" nType="0">
        <Node pos="l" depth="1" NCoef="0" IVar="2" Cut="2.5643531233072281e-02" cType="1" res="8.0124679952859879e-03" rms="4.8824572563171387e-01" purity="5.3723639249801636e-01" nType="0">
          <Node pos="l" depth="2" NCoef="0" IVar="1" Cut="3.9096519351005554e-02" cType="1" res="-3.1307235360145569e-02" rms="4.9386560916900635e-01" purity="4.6405526995658875e-01" nType="0">
            <Node pos="l" depth="3" NCoef="0" IVar="-1" Cut="0.0000000000000000e+00" cType="1" res="-2.4049852509051561e-03" rms="4.7222900390625000e-01" purity="3.4058716893196106e-01" nType="-99"/>
            <Node pos="r" depth="3" NCoef="0" IVar="5" Cut="6.5300896763801575e-02" cType="1" res="-1.0453124530613422e-02" rms="4.9547412991523743e-01" purity="4.8882713913917542e-01" nType="0">
              <Node pos="l" depth="4" NCoef="0" IVar="-1" Cut="0.0000000000000000e+00" cType="1" res="-5.2841654978692532e-03" rms="4.8864743113517761e-01" purity="4.1287782788276672e-01" nType="-99"/>
              <Node pos="r" depth="4" NCoef="0" IVar="-1" Cut="0.0000000000000000e+00" cType="1" res="4.4635438825935125e-04" rms="4.9584457278251648e-01" purity="5.0828570127487183e-01" nType="-99"/>
            </Node>
          </Node>
          <Node pos="r" depth="2" NCoef="0" IVar="4" Cut="1.0755903720855713e+00" cType="1" res="6.2304951250553131e-02" rms="4.7505822777748108e-01" purity="6.3828456401824951e-01" nType="0">
            <Node pos="l" depth="3" NCoef="0" IVar="-1" Cut="0.0000000000000000e+00" cType="1" res="-1.3006801018491387e-03" rms="4.8838499188423157e-01" purity="5.6469672918319702e-01" nType="-99"/>
            <Node pos="r" depth="3" NCoef="0" IVar="4" Cut="2.2928233146667480e+00" cType="1" res="7.4754685163497925e-02" rms="4.7170123457908630e-01" purity="6.5006107091903687e-01" nType="0">
              <Node pos="l" depth="4" NCoef="0" IVar="-1" Cut="0.0000000000000000e+00" cType="1" res="1.3083875179290771e-02" rms="4.5330303907394409e-01" purity="6.9913572072982788e-01" nType="-99"/>
              <Node pos="r" depth="4" NCoef="0" IVar="-1" Cut="0.0000000000000000e+00" cType="1" res="4.0075844153761864e-03" rms="4.7995895147323608e-01" purity="6.2261211872100830e-01" nType="-99"/>
            </Node>
          </Node>
        </Node>
        <Node pos="r" depth="1" NCoef="0" IVar="-1" Cut="0.0000000000000000e+00" cType="1" res="-1.4432251453399658e-02" rms="2.7615728974342346e-01" purity="8.7638825178146362e-02" nType="-99"/>
      </Node>
    </BinaryTree>
    <BinaryTree type="DecisionTree" boostWeight="1.0000000000000000e+00" itree="19">
      <Node pos="s" depth="0" NCoef="0" IVar="5" Cut="1.2063266336917877e-01" cType="1" res="-1.4901749789714813e-02" rms="4.7962206602096558e-01" purity="5.0000000000000000e-01" nType="0">
        <Node pos="l" depth="1" NCoef="0" IVar="2" Cut="2.3168388754129410e-02" cType="1" res="1.1705661192536354e-02" rms="4.8779997229576111e-01" purity="5.4386109113693237e-01" nType="0">
          <Node pos="l" depth="2" NCoef="0" IVar="1" Cut="6.8620748817920685e-02" cType="1" res="-5.3866781294345856e-02" rms="4.9188640713691711e-01" purity="4.2157739400863647e-01" nType="0">
            <Node pos="l" depth="3" NCoef="0" IVar="5" Cut="7.3810100555419922e-02" cType="1" res="-9.7375847399234772e-02" rms="4.8196679353713989e-01" purity="3.7244671583175659e-01" nType="0">
              <Node pos="l" depth="4" NCoef="0" IVar="-1" Cut="0.0000000000000000e+00" cType="1" res="-6.9845123216509819e-03" rms="4.6713933348655701e-01" purity="3.2384589314460754e-01" nType="-99"/>
              <Node pos="r" depth="4" NCoef="0" IVar="-1" Cut="0.0000000000000000e+00" cType="1" res="-4.1891117580235004e-03" rms="4.9221089482307434e-01" purity="4.1880792379379272e-01" nType="-99"/>
            </Node>
            <Node pos="r" depth="3" NCoef="0" IVar="6" Cut="2.0185840129852295e+00" cType="1" res="2.2040770854800940e-03" rms="4.9881660938262939e-01" purity="4.8489278554916382e-01" nType="0">
              <Node pos="l" depth="4" NCoef="0" IVar="-1" Cut="0.0000000000000000e+00" cType="1" res="-1.6567016718909144e-03" rms="4.9708485603332520e-01" purity="4.5567247271537781e-01" nType="-99"/>
              <Node pos="r" depth="4" NCoef="0" IVar="-1" Cut="0.0000000000000000e+00" cType="1" res="3.1691403128206730e-03" rms="4.9884623289108276e-01" purity="5.2374714612960815e-01" nType="-99"/>
            </Node>
          </Node>
          <Node pos="r" depth="2" NCoef="0" IVar="1" Cut="3.9096225053071976e-02" cType="1" res="4.2576719075441360e-02" rms="4.8279055953025818e-01" purity="6.0143148899078369e-01" nType="0">
            <Node pos="l" depth="3" NCoef="0" IVar="-1" Cut="0.0000000000000000e+00" cType="1" res="-8.7004702072590590e-04" rms="4.9515655636787415e-01" purity="4.5643335580825806e-01" nType="-99"/>
            <Node pos="r" depth="3" NCoef="0" IVar="4" Cut="9.1894030570983887e-01" cType="1" res="5.9491835534572601e-02" rms="4.7850623726844788e-01" purity="6.2992238998413086e-01" nType="0">
              <Node pos="l" depth="4" NCoef="0" IVar="-1" Cut="0.0000000000000000e+00" cType="1" res="-1.6385104972869158e-03" rms="4.9510720372200012e-01" purity="5.5182605981826782e-01" nType="-99"/>
              <Node pos="r" depth="4" NCoef="0" IVar="-1" Cut="0.0000000000000000e+00" cType="1" res="6.3107381574809551e-03" rms="4.7565379738807678e-01" purity="6.3907766342163086e-01" nType="-99"/>
            </Node>
          </Node>
        </Node>
        <Node pos="r" depth="1" NCoef="0" IVar="5" Cut="1.4330030977725983e-01" cType="1" res="-2.1734504401683807e-01" rms="3.5138684511184692e-01" purity="1.6628141701221466e-01" nType="0">
          <Node pos="l" depth="2" NCoef="0" IVar="-1" Cut="0.0000000000000000e+00" cType="1" res="-6.9141681306064129e-03" rms="4.4573476910591125e-01" purity="2.9088264703750610e-01" nType="-99"/>
          <Node pos="r" depth="2" NCoef="0" IVar="-1" Cut="0.0000000000000000e+00" cType="1" res="-1.7521690577268600e-02" rms="1.5920443832874298e-01" purity="2.6023263111710548e-02" nType="-99"/>
        </Node>
      </Node>
    </BinaryTree>
    <BinaryTree type="DecisionTree" boostWeight="1.0000000000000000e+00" itree="20">
      <Node pos="s" depth="0" NCoef="0" IVar="5" Cut="1.2063266336917877e-01" cType="1" res="-1.5158162452280521e-02" rms="4.7898909449577332e-01" purity="5.0000000000000000e-01" nType="0">
        <Node pos="l" depth="1" NCoef="0" IVar="2" Cut="2.3168388754129410e-02" cType="1" res="1.0707473382353783e-02" rms="4.8748478293418884e-01" purity="5.4386109113693237e-01" nType="0">
          <Node pos="l" depth="2" NCoef="0" IVar="1" Cut="6.8620748817920685e-02" cType="1" res="-5.2401725202798843e-02" rms="4.9167552590370178e-01" purity="4.2157739400863647e-01" nType="0">
            <Node pos="l" depth="3" NCoef="0" IVar="5" Cut="7.3810100555419922e-02" cType="1" res="-9.4612963497638702e-02" rms="4.8190748691558838e-01" purity="3.7244671583175659e-01" nType="0">
              <Node pos="l" depth="4" NCoef="0" IVar="-1" Cut="0.0000000000000000e+00" cType="1" res="-6.8192877806723118e-03" rms="4.6713986992835999e-01" purity="3.2384589314460754e-01" nType="-99"/>
              <Node pos="r" depth="4" NCoef="0" IVar="-1" Cut="0.0000000000000000e+00" cType="1" res="-4.0358267724514008e-03" rms="4.9221125245094299e-01" purity="4.1880792379379272e-01" nType="-99"/>
            </Node>
            <Node pos="r" depth="3" NCoef="0" IVar="4" Cut="2.3502569198608398e+00" cType="1" res="1.9965921528637409e-03" rms="4.9874356389045715e-01" purity="4.8489278554916382e-01" nType="0">
              <Node pos="l" depth="4" NCoef="0" IVar="-1" Cut="0.0000000000000000e+00" cType="1" res="2.7619146276265383e-03" rms="4.9887153506278992e-01" purity="5.1840060949325562e-01" nType="-99"/>
              <Node pos="r" depth="4" NCoef="0" IVar="-1" Cut="0.0000000000000000e+00" cType="1" res="-1.8037471454590559e-03" rms="4.9678891897201538e-01" purity="4.5231556892395020e-01" nType="-99"/>
            </Node>
          </Node>
          <Node pos="r" depth="2" NCoef="0" IVar="1" Cut="3.9096225053071976e-02" cType="1" res="4.0418852120637894e-02" rms="4.8265072703361511e-01" purity="6.0143148899078369e-01" nType="0">
            <Node pos="l" depth="3" NCoef="0" IVar="-1" Cut="0.0000000000000000e+00" cType="1" res="-8.6140178609639406e-04" rms="4.9515655636787415e-01" purity="4.5643335580825806e-01" nType="-99"/>
            <Node pos="r" depth="3" NCoef="0" IVar="5" Cut="6.9744199514389038e-02" cType="1" res="5.6824591010808945e-02" rms="4.7844547033309937e-01" purity="6.2992238998413086e-01" nType="0">
              <Node pos="l" depth="4" NCoef="0" IVar="-1" Cut="0.0000000000000000e+00" cType="1" res="8.7583519052714109e-04" rms="4.8997515439987183e-01" purity="5.6993544101715088e-01" nType="-99"/>
              <Node pos="r" depth="4" NCoef="0" IVar="-1" Cut="0.0000000000000000e+00" cType="1" res="6.6931964829564095e-03" rms="4.7357904911041260e-01" purity="6.4970874786376953e-01" nType="-99"/>
            </Node>
          </Node>
        </Node>
        <Node pos="r" depth="1" NCoef="0" IVar="5" Cut="1.4330030977725983e-01" cType="1" res="-2.1195764839649200e-01" rms="3.5090956091880798e-01" purity="1.6628141701221466e-01" nType="0">
          <Node pos="l" depth="2" NCoef="0" IVar="-1" Cut="0.0000000000000000e+00" cType="1" res="-6.7640244960784912e-03" rms="4.4574198126792908e-01" purity="2.9088264703750610e-01" nType="-99"/>
          <Node pos="r" depth="2" NCoef="0" IVar="-1" Cut="0.0000000000000000e+00" cType="1" res="-1.7288075760006905e-02" rms="1.5920443832874298e-01" purity="2.6023263111710548e-02" nType="-99"/>
        </Node>
      </Node>
    </BinaryTree>
    <BinaryTree type="DecisionTree" boostWeight="1.0000000000000000e+00" itree="21">
      <Node pos="s" depth="0" NCoef="0" IVar="5" Cut="1.2063266336917877e-01" cType="1" res="-1.5385300852358341e-02" rms="4.7839140892028809e-01" purity="5.0000000000000000e-01" nType="0">
        <Node pos="l" depth="1" NCoef="0" IVar="2" Cut="2.4059439077973366e-02" cType="1" res="9.7600603476166725e-03" rms="4.8718780279159546e-01" purity="5.4386109113693237e-01" nType="0">
          <Node pos="l" depth="2" NCoef="0" IVar="5" Cut="6.5667301416397095e-02" cType="1" res="-3.9829388260841370e-02" rms="4.9309128522872925e-01" purity="4.4208484888076782e-01" nType="0">
            <Node pos="l" depth="3" NCoef="0" IVar="-1" Cut="0.0000000000000000e+00" cType="1" res="-6.4101237803697586e-03" rms="4.7323951125144958e-01" purity="3.4384995698928833e-01" nType="-99"/>
            <Node pos="r" depth="3" NCoef="0" IVar="1" Cut="7.7203057706356049e-02" cType="1" res="-1.1733695864677429e-02" rms="4.9671968817710876e-01" purity="4.7616857290267944e-01" nType="0">
              <Node pos="l" depth="4" NCoef="0" IVar="-1" Cut="0.0000000000000000e+00" cType="1" res="-2.6855315081775188e-03" rms="4.9397131800651550e-01" purity="4.4373890757560730e-01" nType="-99"/>
              <Node pos="r" depth="4" NCoef="0" IVar="-1" Cut="0.0000000000000000e+00" cType="1" res="2.6129947509616613e-03" rms="4.9802681803703308e-01" purity="5.2707618474960327e-01" nType="-99"/>
            </Node>
          </Node>
          <Node pos="r" depth="2" NCoef="0" IVar="0" Cut="1.5210232138633728e-01" cType="1" res="4.4972673058509827e-02" rms="4.7985056042671204e-01" purity="6.1613070964813232e-01" nType="0">
            <Node pos="l" depth="3" NCoef="0" IVar="-1" Cut="0.0000000000000000e+00" cType="1" res="-6.5619562519714236e-04" rms="4.9456503987312317e-01" purity="4.6112999320030212e-01" nType="-99"/>
            <Node pos="r" depth="3" NCoef="0" IVar="0" Cut="5.0046181678771973e-01" cType="1" res="5.7804532349109650e-02" rms="4.7633770108222961e-01" purity="6.3810956478118896e-01" nType="0">
              <Node pos="l" depth="4" NCoef="0" IVar="-1" Cut="0.0000000000000000e+00" cType="1" res="3.2062970567494631e-03" rms="4.8316648602485657e-01" purity="6.1221063137054443e-01" nType="-99"/>
              <Node pos="r" depth="4" NCoef="0" IVar="-1" Cut="0.0000000000000000e+00" cType="1" res="1.0357694700360298e-02" rms="4.6127507090568542e-01" purity="6.8571853637695312e-01" nType="-99"/>
            </Node>
          </Node>
        </Node>
        <Node pos="r" depth="1" NCoef="0" IVar="5" Cut="1.4330030977725983e-01" cType="1" res="-2.0670454204082489e-01" rms="3.5045772790908813e-01" purity="1.6628141701221466e-01" nType="0">
          <Node pos="l" depth="2" NCoef="0" IVar="-1" Cut="0.0000000000000000e+00" cType="1" res="-6.6174459643661976e-03" rms="4.4574958086013794e-01" purity="2.9088264703750610e-01" nType="-99"/>
          <Node pos="r" depth="2" NCoef="0" IVar="-1" Cut="0.0000000000000000e+00" cType="1" res="-1.7063789069652557e-02" rms="1.5920443832874298e-01" purity="2.6023263111710548e-02" nType="-99"/>
        </Node>
      </Node>
    </BinaryTree>
    <BinaryTree type="DecisionTree" boostWeight="1.0000000000000000e+00" itree="22">
      <Node pos="s" depth="0" NCoef="0" IVar="5" Cut="1.2920622527599335e-01" cType="1" res="-1.5634220093488693e-02" rms="4.7780320048332214e-01" purity="5.0000000000000000e-01" nType="0">
        <Node pos="l" depth="1" NCoef="0" IVar="2" Cut="2.5643531233072281e-02" cType="1" res="4.6367314644157887e-03" rms="4.8695448040962219e-01" purity="5.3723639249801636e-01" nType="0">
          <Node pos="l" depth="2" NCoef="0" IVar="1" Cut="3.9096519351005554e-02" cType="1" res="-3.0707420781254768e-02" rms="4.9283662438392639e-01" purity="4.6405526995658875e-01" nType="0">
            <Node pos="l" depth="3" NCoef="0" IVar="-1" Cut="0.0000000000000000e+00" cType="1" res="-2.2985988762229681e-03" rms="4.7179865837097168e-01" purity="3.4058716893196106e-01" nType="-99"/>
            <Node pos="r" depth="3" NCoef="0" IVar="1" Cut="7.0303410291671753e-02" cType="1" res="-1.0959066450595856e-02" rms="4.9459657073020935e-01" purity="4.8882713913917542e-01" nType="0">
              <Node pos="l" depth="4" NCoef="0" IVar="-1" Cut="0.0000000000000000e+00" cType="1" res="-2.8211756143718958e-03" rms="4.9268236756324768e-01" purity="4.5131200551986694e-01" nType="-99"/>
              <Node pos="r" depth="4" NCoef="0" IVar="-1" Cut="0.0000000000000000e+00" cType="1" res="1.4254993293434381e-03" rms="4.9466624855995178e-01" purity="5.2556049823760986e-01" nType="-99"/>
            </Node>
          </Node>
          <Node pos="r" depth="2" NCoef="0" IVar="4" Cut="1.0755903720855713e+00" cType="1" res="5.3439788520336151e-02" rms="4.7440505027770996e-01" purity="6.3828456401824951e-01" nType="0">
            <Node pos="l" depth="3" NCoef="0" IVar="-1" Cut="0.0000000000000000e+00" cType="1" res="-1.5833463985472918e-03" rms="4.8763683438301086e-01" purity="5.6469672918319702e-01" nType="-99"/>
            <Node pos="r" depth="3" NCoef="0" IVar="2" Cut="2.9223447665572166e-02" cType="1" res="6.5000161528587341e-02" rms="4.7122633457183838e-01" purity="6.5006107091903687e-01" nType="0">
              <Node pos="l" depth="4" NCoef="0" IVar="-1" Cut="0.0000000000000000e+00" cType="1" res="4.3344339355826378e-03" rms="4.7622206807136536e-01" purity="6.3369399309158325e-01" nType="-99"/>
              <Node pos="r" depth="4" NCoef="0" IVar="-1" Cut="0.0000000000000000e+00" cType="1" res="1.4934967271983624e-02" rms="4.3855413794517517e-01" purity="7.3121249675750732e-01" nType="-99"/>
            </Node>
          </Node>
        </Node>
        <Node pos="r" depth="1" NCoef="0" IVar="-1" Cut="0.0000000000000000e+00" cType="1" res="-1.3572814874351025e-02" rms="2.7492085099220276e-01" purity="8.7638825178146362e-02" nType="-99"/>
      </Node>
    </BinaryTree>
    <BinaryTree type="DecisionTree" boostWeight="1.0000000000000000e+00" itree="23">
      <Node pos="s" depth="0" NCoef="0" IVar="5" Cut="1.2063266336917877e-01" cType="1" res="-1.5827693045139313e-02" rms="4.7732555866241455e-01" purity="5.0000000000000000e-01" nType="0">
        <Node pos="l" depth="1" NCoef="0" IVar="2" Cut="2.3168388754129410e-02" cType="1" res="8.0654425546526909e-03" rms="4.8664295673370361e-01" purity="5.4386109113693237e-01" nType="0">
          <Node pos="l" depth="2" NCoef="0" IVar="0" Cut="3.8472568988800049e-01" cType="1" res="-4.9464017152786255e-02" rms="4.9120137095451355e-01" purity="4.2157739400863647e-01" nType="0">
            <Node pos="l" depth="3" NCoef="0" IVar="-1" Cut="0.0000000000000000e+00" cType="1" res="-6.7425258457660675e-03" rms="4.7339677810668945e-01" purity="3.4430912137031555e-01" nType="-99"/>
            <Node pos="r" depth="3" NCoef="0" IVar="0" Cut="5.9222215414047241e-01" cType="1" res="-1.8770202994346619e-02" rms="4.9606227874755859e-01" purity="4.5672518014907837e-01" nType="0">
              <Node pos="l" depth="4" NCoef="0" IVar="-1" Cut="0.0000000000000000e+00" cType="1" res="-2.9811749700456858e-03" rms="4.9199625849723816e-01" purity="4.2224931716918945e-01" nType="-99"/>
              <Node pos="r" depth="4" NCoef="0" IVar="-1" Cut="0.0000000000000000e+00" cType="1" res="1.6499317716807127e-03" rms="4.9891301989555359e-01" purity="5.0406086444854736e-01" nType="-99"/>
            </Node>
          </Node>
          <Node pos="r" depth="2" NCoef="0" IVar="1" Cut="3.9096225053071976e-02" cType="1" res="3.5149917006492615e-02" rms="4.8211109638214111e-01" purity="6.0143148899078369e-01" nType="0">
            <Node pos="l" depth="3" NCoef="0" IVar="-1" Cut="0.0000000000000000e+00" cType="1" res="-8.7002804502844810e-04" rms="4.9470636248588562e-01" purity="4.5643335580825806e-01" nType="-99"/>
            <Node pos="r" depth="3" NCoef="0" IVar="4" Cut="9.1894030570983887e-01" cType="1" res="5.0602369010448456e-02" rms="4.7807911038398743e-01" purity="6.2992238998413086e-01" nType="0">
              <Node pos="l" depth="4" NCoef="0" IVar="-1" Cut="0.0000000000000000e+00" cType="1" res="-1.9464716315269470e-03" rms="4.9473354220390320e-01" purity="5.5182605981826782e-01" nType="-99"/>
              <Node pos="r" depth="4" NCoef="0" IVar="-1" Cut="0.0000000000000000e+00" cType="1" res="5.4726260714232922e-03" rms="4.7532936930656433e-01" purity="6.3907766342163086e-01" nType="-99"/>
            </Node>
          </Node>
        </Node>
        <Node pos="r" depth="1" NCoef="0" IVar="5" Cut="1.4330030977725983e-01" cType="1" res="-1.9761934876441956e-01" rms="3.4944346547126770e-01" purity="1.6628141701221466e-01" nType="0">
          <Node pos="l" depth="2" NCoef="0" IVar="-1" Cut="0.0000000000000000e+00" cType="1" res="-6.3774250447750092e-03" rms="4.4539895653724670e-01" purity="2.9088264703750610e-01" nType="-99"/>
          <Node pos="r" depth="2" NCoef="0" IVar="-1" Cut="0.0000000000000000e+00" cType="1" res="-1.6680656000971794e-02" rms="1.5920443832874298e-01" purity="2.6023263111710548e-02" nType="-99"/>
        </Node>
      </Node>
    </BinaryTree>
    <BinaryTree type="DecisionTree" boostWeight="1.0000000000000000e+00" itree="24">
      <Node pos="s" depth="0" NCoef="0" IVar="5" Cut="1.2063266336917877e-01" cType="1" res="-1.5961054712533951e-02" rms="4.7681668400764465e-01" purity="5.0000000000000000e-01" nType="0">
        <Node pos="l" depth="1" NCoef="0" IVar="2" Cut="2.5445519015192986e-02" cType="1" res="7.2710914537310600e-03" rms="4.8639047145843506e-01" purity="5.4386109113693237e-01" nType="0">
          <Node pos="l" depth="2" NCoef="0" IVar="1" Cut="3.8582667708396912e-02" cType="1" res="-2.6567330583930016e-02" rms="4.9346944689750671e-01" purity="4.6690768003463745e-01" nType="0">
            <Node pos="l" depth="3" NCoef="0" IVar="-1" Cut="0.0000000000000000e+00" cType="1" res="-2.1225304808467627e-03" rms="4.7190806269645691e-01" purity="3.3877611160278320e-01" nType="-99"/>
            <Node pos="r" depth="3" NCoef="0" IVar="2" Cut="2.1563574671745300e-02" cType="1" res="-7.0063336752355099e-03" rms="4.9520501494407654e-01" purity="4.9190098047256470e-01" nType="0">
              <Node pos="l" depth="4" NCoef="0" IVar="-1" Cut="0.0000000000000000e+00" cType="1" res="-3.8223247975111008e-03" rms="4.8825937509536743e-01" purity="4.0062397718429565e-01" nType="-99"/>
              <Node pos="r" depth="4" NCoef="0" IVar="-1" Cut="0.0000000000000000e+00" cType="1" res="9.7449618624523282e-04" rms="4.9630060791969299e-01" purity="5.2514958381652832e-01" nType="-99"/>
            </Node>
          </Node>
          <Node pos="r" depth="2" NCoef="0" IVar="5" Cut="6.3580274581909180e-02" cType="1" res="5.0323817878961563e-02" rms="4.7375106811523438e-01" purity="6.4176917076110840e-01" nType="0">
            <Node pos="l" depth="3" NCoef="0" IVar="-1" Cut="0.0000000000000000e+00" cType="1" res="-6.9962255656719208e-04" rms="4.9022307991981506e-01" purity="5.5185717344284058e-01" nType="-99"/>
            <Node pos="r" depth="3" NCoef="0" IVar="2" Cut="2.9188131913542747e-02" cType="1" res="6.3603945076465607e-02" rms="4.6898916363716125e-01" purity="6.6168123483657837e-01" nType="0">
              <Node pos="l" depth="4" NCoef="0" IVar="-1" Cut="0.0000000000000000e+00" cType="1" res="4.8081902787089348e-03" rms="4.7380712628364563e-01" purity="6.4714008569717407e-01" nType="-99"/>
              <Node pos="r" depth="4" NCoef="0" IVar="-1" Cut="0.0000000000000000e+00" cType="1" res="1.1591953225433826e-02" rms="4.4076824188232422e-01" purity="7.3115646839141846e-01" nType="-99"/>
            </Node>
          </Node>
        </Node>
        <Node pos="r" depth="1" NCoef="0" IVar="5" Cut="1.4330030977725983e-01" cType="1" res="-1.9272354245185852e-01" rms="3.4905624389648438e-01" purity="1.6628141701221466e-01" nType="0">
          <Node pos="l" depth="2" NCoef="0" IVar="-1" Cut="0.0000000000000000e+00" cType="1" res="-6.2398714944720268e-03" rms="4.4540691375732422e-01" purity="2.9088264703750610e-01" nType="-99"/>
          <Node pos="r" depth="2" NCoef="0" IVar="-1" Cut="0.0000000000000000e+00" cType="1" res="-1.6479332000017166e-02" rms="1.5920443832874298e-01" purity="2.6023263111710548e-02" nType="-99"/>
        </Node>
      </Node>
    </BinaryTree>
    <BinaryTree type="DecisionTree" boostWeight="1.0000000000000000e+00" itree="25">
      <Node pos="s" depth="0" NCoef="0" IVar="5" Cut="1.2063266336917877e-01" cType="1" res="-1.6142345964908600e-02" rms="4.7636771202087402e-01" purity="5.0000000000000000e-01" nType="0">
        <Node pos="l" depth="1" NCoef="0" IVar="2" Cut="2.3168388754129410e-02" cType="1" res="6.4385258592665195e-03" rms="4.8619127273559570e-01" purity="5.4386109113693237e-01" nType="0">
          <Node pos="l" depth="2" NCoef="0" IVar="0" Cut="3.8472568988800049e-01" cType="1" res="-4.7378230839967728e-02" rms="4.9096220731735229e-01" purity="4.2157739400863647e-01" nType="0">
            <Node pos="l" depth="3" NCoef="0" IVar="-1" Cut="0.0000000000000000e+00" cType="1" res="-6.5157054923474789e-03" rms="4.7331014275550842e-01" purity="3.4430912137031555e-01" nType="-99"/>
            <Node pos="r" depth="3" NCoef="0" IVar="0" Cut="5.9222215414047241e-01" cType="1" res="-1.7604546621441841e-02" rms="4.9593475461006165e-01" purity="4.5672518014907837e-01" nType="0">
              <Node pos="l" depth="4" NCoef="0" IVar="-1" Cut="0.0000000000000000e+00" cType="1" res="-2.8518119361251593e-03" rms="4.9192887544631958e-01" purity="4.2224931716918945e-01" nType="-99"/>
              <Node pos="r" depth="4" NCoef="0" IVar="-1" Cut="0.0000000000000000e+00" cType="1" res="1.6416413709521294e-03" rms="4.9887397885322571e-01" purity="5.0406086444854736e-01" nType="-99"/>
            </Node>
          </Node>
          <Node pos="r" depth="2" NCoef="0" IVar="1" Cut="6.6384725272655487e-02" cType="1" res="3.1775087118148804e-02" rms="4.8185232281684875e-01" purity="6.0143148899078369e-01" nType="0">
            <Node pos="l" depth="3" NCoef="0" IVar="1" Cut="3.4683190286159515e-02" cType="1" res="6.9328525569289923e-04" rms="4.9011141061782837e-01" purity="5.5017340183258057e-01" nType="0">
              <Node pos="l" depth="4" NCoef="0" IVar="-1" Cut="0.0000000000000000e+00" cType="1" res="-1.0732584632933140e-03" rms="4.8817381262779236e-01" purity="4.1093993186950684e-01" nType="-99"/>
              <Node pos="r" depth="4" NCoef="0" IVar="-1" Cut="0.0000000000000000e+00" cType="1" res="1.4653146499767900e-03" rms="4.8865562677383423e-01" purity="5.7781547307968140e-01" nType="-99"/>
            </Node>
            <Node pos="r" depth="3" NCoef="0" IVar="3" Cut="2.3639757633209229e+00" cType="1" res="6.8876460194587708e-02" rms="4.6911591291427612e-01" purity="6.6261655092239380e-01" nType="0">
              <Node pos="l" depth="4" NCoef="0" IVar="-1" Cut="0.0000000000000000e+00" cType="1" res="9.1599831357598305e-03" rms="4.6213632822036743e-01" purity="6.8257963657379150e-01" nType="-99"/>
              <Node pos="r" depth="4" NCoef="0" IVar="-1" Cut="0.0000000000000000e+00" cType="1" res="9.3857740284875035e-04" rms="4.8649880290031433e-01" purity="5.9803581237792969e-01" nType="-99"/>
            </Node>
          </Node>
        </Node>
        <Node pos="r" depth="1" NCoef="0" IVar="5" Cut="1.4330030977725983e-01" cType="1" res="-1.8794959783554077e-01" rms="3.4868976473808289e-01" purity="1.6628141701221466e-01" nType="0">
          <Node pos="l" depth="2" NCoef="0" IVar="-1" Cut="0.0000000000000000e+00" cType="1" res="-6.1054616235196590e-03" rms="4.4541513919830322e-01" purity="2.9088264703750610e-01" nType="-99"/>
          <Node pos="r" depth="2" NCoef="0" IVar="-1" Cut="0.0000000000000000e+00" cType="1" res="-1.6285195946693420e-02" rms="1.5920443832874298e-01" purity="2.6023263111710548e-02" nType="-99"/>
        </Node>
      </Node>
    </BinaryTree>
    <BinaryTree type="DecisionTree" boostWeight="1.0000000000000000e+00" itree="26">
      <Node pos="s" depth="0" NCoef="0" IVar="5" Cut="1.2920622527599335e-01" cType="1" res="-1.6334442421793938e-02" rms="4.7586232423782349e-01" purity="5.0000000000000000e-01" nType="0">
        <Node pos="l" depth="1" NCoef="0" IVar="2" Cut="2.5643531233072281e-02" cType="1" res="1.8613452557474375e-03" rms="4.8592168092727661e-01" purity="5.3723639249801636e-01" nType="0">
          <Node pos="l" depth="2" NCoef="0" IVar="1" Cut="3.9096519351005554e-02" cType="1" res="-2.9819021001458168e-02" rms="4.9209314584732056e-01" purity="4.6405526995658875e-01" nType="0">
            <Node pos="l" depth="3" NCoef="0" IVar="-1" Cut="0.0000000000000000e+00" cType="1" res="-2.1958977449685335e-03" rms="4.7156238555908203e-01" purity="3.4058716893196106e-01" nType="-99"/>
            <Node pos="r" depth="3" NCoef="0" IVar="5" Cut="6.5300896763801575e-02" cType="1" res="-1.1078900657594204e-02" rms="4.9398735165596008e-01" purity="4.8882713913917542e-01" nType="0">
              <Node pos="l" depth="4" NCoef="0" IVar="-1" Cut="0.0000000000000000e+00" cType="1" res="-4.8824609257280827e-03" rms="4.8753425478935242e-01" purity="4.1287782788276672e-01" nType="-99"/>
              <Node pos="r" depth="4" NCoef="0" IVar="-1" Cut="0.0000000000000000e+00" cType="1" res="2.7882229187525809e-04" rms="4.9452510476112366e-01" purity="5.0828570127487183e-01" nType="-99"/>
            </Node>
          </Node>
          <Node pos="r" depth="2" NCoef="0" IVar="4" Cut="1.0755903720855713e+00" cType="1" res="4.5605462044477463e-02" rms="4.7379988431930542e-01" purity="6.3828456401824951e-01" nType="0">
            <Node pos="l" depth="3" NCoef="0" IVar="-1" Cut="0.0000000000000000e+00" cType="1" res="-1.8697578925639391e-03" rms="4.8709234595298767e-01" purity="5.6469672918319702e-01" nType="-99"/>
            <Node pos="r" depth="3" NCoef="0" IVar="4" Cut="2.4145174026489258e+00" cType="1" res="5.6443769484758377e-02" rms="4.7073432803153992e-01" purity="6.5006107091903687e-01" nType="0">
              <Node pos="l" depth="4" NCoef="0" IVar="-1" Cut="0.0000000000000000e+00" cType="1" res="9.7811929881572723e-03" rms="4.5400080084800720e-01" purity="6.9493156671524048e-01" nType="-99"/>
              <Node pos="r" depth="4" NCoef="0" IVar="-1" Cut="0.0000000000000000e+00" cType="1" res="2.6283606421202421e-03" rms="4.7990500926971436e-01" purity="6.2046074867248535e-01" nType="-99"/>
            </Node>
          </Node>
        </Node>
        <Node pos="r" depth="1" NCoef="0" IVar="-1" Cut="0.0000000000000000e+00" cType="1" res="-1.2802664190530777e-02" rms="2.7392247319221497e-01" purity="8.7638825178146362e-02" nType="-99"/>
      </Node>
    </BinaryTree>
    <BinaryTree type="DecisionTree" boostWeight="1.0000000000000000e+00" itree="27">
      <Node pos="s" depth="0" NCoef="0" IVar="5" Cut="1.2063266336917877e-01" cType="1" res="-1.6439817845821381e-02" rms="4.7546988725662231e-01" purity="5.0000000000000000e-01" nType="0">
        <Node pos="l" depth="1" NCoef="0" IVar="2" Cut="2.6435576379299164e-02" cType="1" res="5.0167785957455635e-03" rms="4.8571255803108215e-01" purity="5.4386109113693237e-01" nType="0">
          <Node pos="l" depth="2" NCoef="0" IVar="1" Cut="4.3644309043884277e-02" cType="1" res="-2.0248616114258766e-02" rms="4.9201130867004395e-01" purity="4.8596018552780151e-01" nType="0">
            <Node pos="l" depth="3" NCoef="0" IVar="5" Cut="6.5667301416397095e-02" cType="1" res="-9.2866979539394379e-02" rms="4.8185893893241882e-01" purity="3.8417258858680725e-01" nType="0">
              <Node pos="l" depth="4" NCoef="0" IVar="-1" Cut="0.0000000000000000e+00" cType="1" res="-7.1719307452440262e-03" rms="4.6329551935195923e-01" purity="3.1759113073348999e-01" nType="-99"/>
              <Node pos="r" depth="4" NCoef="0" IVar="-1" Cut="0.0000000000000000e+00" cType="1" res="-1.1367426486685872e-03" rms="4.8991745710372925e-01" purity="4.2542213201522827e-01" nType="-99"/>
            </Node>
            <Node pos="r" depth="3" NCoef="0" IVar="3" Cut="2.3638455867767334e+00" cType="1" res="2.9281212482601404e-03" rms="4.9296090006828308e-01" purity="5.1844650506973267e-01" nType="0">
              <Node pos="l" depth="4" NCoef="0" IVar="-1" Cut="0.0000000000000000e+00" cType="1" res="1.4480358222499490e-03" rms="4.9170714616775513e-01" purity="5.3495728969573975e-01" nType="-99"/>
              <Node pos="r" depth="4" NCoef="0" IVar="-1" Cut="0.0000000000000000e+00" cType="1" res="-3.5456281621009111e-03" rms="4.9351012706756592e-01" purity="4.6344077587127686e-01" nType="-99"/>
            </Node>
          </Node>
          <Node pos="r" depth="2" NCoef="0" IVar="2" Cut="2.9329406097531319e-02" cType="1" res="5.3111430257558823e-02" rms="4.6975031495094299e-01" purity="6.5408009290695190e-01" nType="0">
            <Node pos="l" depth="3" NCoef="0" IVar="0" Cut="5.0417643785476685e-01" cType="1" res="4.0828257799148560e-02" rms="4.7423738241195679e-01" purity="6.3925933837890625e-01" nType="0">
              <Node pos="l" depth="4" NCoef="0" IVar="-1" Cut="0.0000000000000000e+00" cType="1" res="1.6804727492853999e-03" rms="4.8271957039833069e-01" purity="6.0818660259246826e-01" nType="-99"/>
              <Node pos="r" depth="4" NCoef="0" IVar="-1" Cut="0.0000000000000000e+00" cType="1" res="1.0839383117854595e-02" rms="4.4779527187347412e-01" purity="7.1966117620468140e-01" nType="-99"/>
            </Node>
            <Node pos="r" depth="3" NCoef="0" IVar="-1" Cut="0.0000000000000000e+00" cType="1" res="1.2308172881603241e-02" rms="4.4372558593750000e-01" purity="7.2328543663024902e-01" nType="-99"/>
          </Node>
        </Node>
        <Node pos="r" depth="1" NCoef="0" IVar="5" Cut="1.4330030977725983e-01" cType="1" res="-1.7969298362731934e-01" rms="3.4786581993103027e-01" purity="1.6628141701221466e-01" nType="0">
          <Node pos="l" depth="2" NCoef="0" IVar="-1" Cut="0.0000000000000000e+00" cType="1" res="-5.8826766908168793e-03" rms="4.4511663913726807e-01" purity="2.9088264703750610e-01" nType="-99"/>
          <Node pos="r" depth="2" NCoef="0" IVar="-1" Cut="0.0000000000000000e+00" cType="1" res="-1.5953417867422104e-02" rms="1.5920443832874298e-01" purity="2.6023263111710548e-02" nType="-99"/>
        </Node>
      </Node>
    </BinaryTree>
    <BinaryTree type="DecisionTree" boostWeight="1.0000000000000000e+00" itree="28">
      <Node pos="s" depth="0" NCoef="0" IVar="5" Cut="1.2063266336917877e-01" cType="1" res="-1.6556138172745705e-02" rms="4.7501370310783386e-01" purity="5.0000000000000000e-01" nType="0">
        <Node pos="l" depth="1" NCoef="0" IVar="2" Cut="2.3168388754129410e-02" cType="1" res="4.3003209866583347e-03" rms="4.8546206951141357e-01" purity="5.4386109113693237e-01" nType="0">
          <Node pos="l" depth="2" NCoef="0" IVar="0" Cut="3.8472568988800049e-01" cType="1" res="-4.5195877552032471e-02" rms="4.9058714509010315e-01" purity="4.2157739400863647e-01" nType="0">
            <Node pos="l" depth="3" NCoef="0" IVar="-1" Cut="0.0000000000000000e+00" cType="1" res="-6.2119923532009125e-03" rms="4.7313886880874634e-01" purity="3.4430912137031555e-01" nType="-99"/>
            <Node pos="r" depth="3" NCoef="0" IVar="0" Cut="5.9222215414047241e-01" cType="1" res="-1.6946194693446159e-02" rms="4.9575421214103699e-01" purity="4.5672518014907837e-01" nType="0">
              <Node pos="l" depth="4" NCoef="0" IVar="-1" Cut="0.0000000000000000e+00" cType="1" res="-2.7481648139655590e-03" rms="4.9184408783912659e-01" purity="4.2224931716918945e-01" nType="-99"/>
              <Node pos="r" depth="4" NCoef="0" IVar="-1" Cut="0.0000000000000000e+00" cType="1" res="1.5827270690351725e-03" rms="4.9874353408813477e-01" purity="5.0406086444854736e-01" nType="-99"/>
            </Node>
          </Node>
          <Node pos="r" depth="2" NCoef="0" IVar="1" Cut="3.9096225053071976e-02" cType="1" res="2.7602791786193848e-02" rms="4.8127120733261108e-01" purity="6.0143148899078369e-01" nType="0">
            <Node pos="l" depth="3" NCoef="0" IVar="-1" Cut="0.0000000000000000e+00" cType="1" res="-8.9559511980041862e-04" rms="4.9385824799537659e-01" purity="4.5643335580825806e-01" nType="-99"/>
            <Node pos="r" depth="3" NCoef="0" IVar="4" Cut="9.1894030570983887e-01" cType="1" res="4.1817102581262589e-02" rms="4.7747245430946350e-01" purity="6.2992238998413086e-01" nType="0">
              <Node pos="l" depth="4" NCoef="0" IVar="-1" Cut="0.0000000000000000e+00" cType="1" res="-2.3481447715312243e-03" rms="4.9444833397865295e-01" purity="5.5182605981826782e-01" nType="-99"/>
              <Node pos="r" depth="4" NCoef="0" IVar="-1" Cut="0.0000000000000000e+00" cType="1" res="4.6503869816660881e-03" rms="4.7476282715797424e-01" purity="6.3907766342163086e-01" nType="-99"/>
            </Node>
          </Node>
        </Node>
        <Node pos="r" depth="1" NCoef="0" IVar="5" Cut="1.4330030977725983e-01" cType="1" res="-1.7524313926696777e-01" rms="3.4755140542984009e-01" purity="1.6628141701221466e-01" nType="0">
          <Node pos="l" depth="2" NCoef="0" IVar="-1" Cut="0.0000000000000000e+00" cType="1" res="-5.7563236914575100e-03" rms="4.4512489438056946e-01" purity="2.9088264703750610e-01" nType="-99"/>
          <Node pos="r" depth="2" NCoef="0" IVar="-1" Cut="0.0000000000000000e+00" cType="1" res="-1.5777021646499634e-02" rms="1.5920443832874298e-01" purity="2.6023263111710548e-02" nType="-99"/>
        </Node>
      </Node>
    </BinaryTree>
    <BinaryTree type="DecisionTree" boostWeight="1.0000000000000000e+00" itree="29">
      <Node pos="s" depth="0" NCoef="0" IVar="5" Cut="1.2063266336917877e-01" cType="1" res="-1.6590859740972519e-02" rms="4.7461822628974915e-01" purity="5.0000000000000000e-01" nType="0">
        <Node pos="l" depth="1" NCoef="0" IVar="1" Cut="3.9096225053071976e-02" cType="1" res="3.6907212343066931e-03" rms="4.8526206612586975e-01" purity="5.4386109113693237e-01" nType="0">
          <Node pos="l" depth="2" NCoef="0" IVar="2" Cut="2.5149311870336533e-02" cType="1" res="-7.0850126445293427e-02" rms="4.8631909489631653e-01" purity="4.1238975524902344e-01" nType="0">
            <Node pos="l" depth="3" NCoef="0" IVar="-1" Cut="0.0000000000000000e+00" cType="1" res="-2.0061922259628773e-03" rms="4.7109764814376831e-01" purity="3.3697172999382019e-01" nType="-99"/>
            <Node pos="r" depth="3" NCoef="0" IVar="-1" Cut="0.0000000000000000e+00" cType="1" res="-6.3291663536801934e-04" rms="4.9781161546707153e-01" purity="5.0564128160476685e-01" nType="-99"/>
          </Node>
